-2.97163e-06 -8.40122e-06 2.31595e-05 -7.86146e-05 -0.000395487 0.00255753 -0.00441816 0.0048643 -0.00603875 -0.00791783 -0.00825995 0.00871661 -0.0105469 -0.0115092 0.0115914 0.0127011 -0.0142493 0.0147836 0.0151026 0.0164015 -0.017669 -0.0180693 -0.0185974 -0.0199129 -0.0209843 -0.0213635 0.0220274 0.023305 -0.0242447 0.0246397 0.0253865 0.0266112 -0.0274603 0.0278801 0.0286756 -0.0298456 -0.0306297 -0.0310732 0.0318956 0.0330132 -0.033748 -0.034211 0.0350458 0.0361142 0.0368096 -0.0372869 -0.0381241 -0.0391466 0.0398085 0.0402953 0.0411279 -0.042107 -0.0427393 -0.0432308 0.0440537 -0.0449916 0.0455965 -0.0460886 0.0468978 -0.0477962 -0.0483747 -0.0488637 0.0496562 0.0505162 0.0510691 -0.0515517 -0.0523249 -0.0531475 0.0536747 0.054148 0.0548999 -0.0556856 -0.0561869 0.0566483 0.0573771 0.0581263 0.0586012 -0.0590484 0.0597525 -0.0604654 -0.0609135 0.0613442 0.0620223 -0.062699 0.0631195 -0.0635318 -0.0641828 -0.0648232 -0.0652155 -0.0656077 0.0662304 -0.0668345 -0.0671977 0.0675682 0.0681617 -0.0687293 -0.0690627 -0.0694101 -0.0699735 -0.0705043 -0.0708073 -0.0711301 0.0716627 -0.0721566 0.0724283 0.0727254 -0.0732265 -0.0736832 0.073923 0.0741933 -0.0746622 0.0750815 -0.0752888 -0.0755313 -0.0759674 0.0763491 0.0765232 0.076737 -0.0771399 -0.0774838 -0.0776242 0.0778084 -0.0781777 -0.0784837 0.0785898 0.0787438 -0.079079 0.0793469 -0.0794183 -0.0795414 0.0798424 0.0800721 -0.0801083 -0.0802 -0.0804666 0.0806579 0.0806586 0.0807185 -0.0809504 -0.0811034 -0.0810682 -0.0810959 0.0812931 0.0814078 0.0813365 -0.0813316 -0.0814942 0.0815706 -0.0814629 -0.0814253 -0.0815532 0.0815915 -0.0814473 -0.0813768 -0.0814703 -0.0814705 0.0812898 0.0811862 0.0812454 -0.0812078 -0.0809904 -0.0808538 0.0808791 -0.080804 0.0805499 -0.0803804 0.080372 -0.0802597 0.079969 -0.0797666 -0.0797251 -0.0795759 -0.0792487 0.0790136 0.0789395 0.0787539 -0.0783902 -0.0781228 -0.0780166 -0.0777951 0.0773952 -0.0770956 -0.076958 -0.0767011 -0.0762652 -0.0759339 0.0757657 -0.0754741 -0.0750024 -0.0746398 0.0744418 -0.0741161 0.0736089 0.0732155 0.0729886 0.0726296 -0.0720872 0.0716635 0.0714087 0.0710172 -0.0704399 -0.0699864 0.0697049 -0.0692818 -0.06867 -0.0681873 -0.0678803 -0.0674266 0.0667806 0.0662693 0.0659381 -0.0654548 -0.0647749 -0.0642357 0.0638817 0.0633701 -0.0626566 -0.06209 0.0617149 0.0611762 -0.0604294 -0.0598361 0.0594415 0.0588771 0.0580972 0.0574777 0.0570655 -0.056477 0.0556643 0.0550189 0.0545913 0.0539806 0.0531349 -0.0524641 -0.0520232 0.0513923 0.0505137 0.0498175 -0.049366 -0.0487172 0.0478055 0.0470837 0.0466243 -0.0459606 -0.0450153 -0.0442673 -0.043803 0.0431281 0.0421485 0.0413729 -0.0409073 -0.0402255 -0.0392109 -0.0384053 -0.0379421 0.0372593 0.0362086 0.0353691 -0.0349125 -0.0342366 -0.0331488 0.0322689 0.031823 0.0311652 -0.0300398 0.0291092 -0.0286776 -0.0280542 -0.0268923 0.0258942 0.0254781 -0.0249137 0.0237213 0.0226286 0.0222216 -0.0217546 -0.0205512 0.01932 0.018894 -0.0185845 -0.0174258 0.0159905 -0.0154525 0.0153846 0.0144283 0.0127293 0.0117959 -0.0119792 -0.0116696 0.00993188 0.00796834 0.00728738 -0.00799968 0.00858498 0.00704069 0.00359396 0.00755581 -0.00755487 0.00391957 0.00391959 
-5.97017e-06 -1.687e-05 4.6467e-05 -0.000157555 -0.000791546 0.00511275 -0.00882876 0.00971519 -0.0120472 -0.0157821 -0.0164486 0.0173336 -0.0209441 -0.0228258 0.0229523 0.0251037 -0.0281146 0.0291163 0.0296821 0.0321631 -0.0345734 -0.0352753 -0.0362131 -0.0386719 -0.0406454 -0.0412641 0.0424176 0.0447392 -0.0463985 0.0469994 0.0482545 0.0504027 -0.0518241 0.0524171 0.0536983 -0.0556638 -0.0568922 -0.0574684 0.0587254 0.0605074 -0.0615689 -0.0621133 0.0633113 0.0649117 0.065821 -0.0663178 -0.0674321 -0.068853 0.0696179 0.0700524 0.0710647 -0.0723079 -0.0729323 -0.0732915 0.074188 -0.0752549 0.0757406 -0.0760131 0.0767833 -0.0776753 -0.0780227 -0.078199 0.0788349 0.0795534 0.0797625 -0.0798346 -0.0803304 -0.0808767 0.0809474 0.0809093 0.0812607 -0.0816367 -0.0815693 0.0814162 0.0816206 0.0818284 0.0816237 -0.0813523 0.0814083 -0.0814508 -0.0811101 0.0807186 0.0806263 -0.0805068 0.0800322 -0.07952 -0.0792805 -0.0790031 -0.0783975 -0.0777652 0.0773808 -0.0769503 -0.0762175 0.0754669 0.0749408 -0.0743629 -0.0735073 -0.0726414 -0.0719781 -0.0712589 -0.070286 -0.0693088 0.0685135 -0.06766 0.066576 0.0654924 -0.0645714 -0.0635913 0.0624032 0.0612193 -0.0601795 0.0590813 -0.0577968 -0.0565194 -0.0553686 0.0541614 0.0527889 0.0514256 -0.0501724 -0.0488658 -0.0474146 0.0459736 -0.0446273 -0.0432315 0.0417112 0.0402017 -0.0387719 0.0372977 -0.0357186 -0.0341501 0.0326473 0.0311057 -0.0294786 -0.0278613 -0.026296 0.0246988 0.0230347 0.0213791 -0.0197625 -0.0181213 -0.0164319 -0.0147488 0.0130923 0.0114193 0.00971615 -0.00801679 -0.00633185 0.00463927 -0.00293433 -0.00123 0.000471676 -0.00217157 0.0038663 0.00556419 0.00727091 0.00896583 -0.0106383 -0.0123184 -0.0140185 0.0156963 0.0173346 0.0189854 -0.0206675 0.022316 -0.0239083 0.0255188 -0.0271715 0.0287791 -0.0303139 0.031873 0.0334855 0.0350407 0.0365065 -0.0380038 -0.0395653 -0.0410571 0.0424431 0.0438682 0.0453689 0.0467867 -0.0480824 0.0494256 0.0508558 0.0521896 0.053385 0.0546371 -0.055988 0.0572284 0.0583142 0.0594665 -0.0607298 0.0618682 -0.0628355 -0.0638801 -0.0650485 -0.0660769 0.0669175 -0.0678472 -0.068914 -0.0698253 0.0705319 0.0713401 -0.0722996 0.0730877 0.0736536 0.0743346 0.0751821 0.0758416 -0.0762608 -0.0768098 -0.0775415 0.0780683 0.0783357 0.0787484 -0.0793618 -0.0797524 0.0798638 0.080137 -0.0806305 -0.0808829 0.0808347 0.080966 -0.0813391 -0.0814524 -0.0812418 -0.0812296 -0.0814832 0.0814576 -0.0810826 -0.0809258 -0.0810621 -0.0808991 -0.0803585 0.0800568 0.0800792 -0.079782 -0.079075 -0.0786286 0.0785418 0.078115 -0.0772416 -0.0766508 -0.0764613 0.0759112 0.0748718 0.0741371 0.0738526 -0.073188 -0.0719834 -0.0711045 0.0707344 0.0699666 0.068598 0.0675735 0.0671287 -0.0662727 -0.0647416 -0.0635677 0.0630607 0.0621364 0.0604449 -0.0591137 -0.0585577 -0.0575921 0.0557442 -0.0542404 0.0536485 0.0526796 0.0506829 -0.0489793 -0.0483604 0.0474436 -0.045316 -0.043365 -0.0427138 0.0419327 0.0397191 -0.0374397 -0.0367083 0.036191 0.0340087 -0.0312763 0.0302887 -0.0302127 -0.0283827 -0.025083 -0.0232836 0.023681 0.0230969 -0.0196797 -0.015808 -0.0144735 0.0159025 -0.0170757 -0.0140092 -0.00715319 -0.0150724 0.0150705 -0.00783393 -0.00783395 
-9.02277e-06 -2.54746e-05 7.00715e-05 -0.000237147 -0.00118875 0.00766337 -0.0132243 0.0145393 -0.0179951 -0.0235398 -0.0244952 0.0257526 -0.0310443 -0.0337603 0.0338568 0.0369163 -0.0412221 0.0425609 0.0432336 0.0466701 -0.0499817 -0.0507958 -0.051917 -0.0551901 -0.0577434 -0.0583393 0.0596552 0.0625819 -0.0645509 0.0650102 0.0663355 0.0688536 -0.0703438 0.070669 0.0718806 -0.0739706 -0.075043 -0.0752116 0.076228 0.0778863 -0.0785765 -0.0785614 0.0793283 0.0805582 0.0808882 -0.0806646 -0.0811465 -0.0819555 0.0819404 0.0814893 0.0816644 -0.0820629 -0.0817157 -0.0810242 0.0808814 -0.080883 0.0802168 -0.0792786 0.0788154 -0.078437 -0.0774667 -0.0762818 0.0755031 0.074765 0.0735082 -0.0720827 -0.0709999 -0.0699258 0.0684031 0.0667487 0.065379 -0.0639961 -0.0622313 0.0603649 0.0587305 0.0570693 0.0550896 -0.0530326 0.0511603 -0.0492542 -0.0470898 0.044868 0.0427883 -0.0406735 0.0383572 -0.0359998 -0.0337466 -0.0314616 -0.0290287 -0.0265679 0.0241779 -0.0217628 -0.0192503 0.0167208 0.0142324 -0.011729 -0.00917526 -0.0066132 -0.00406661 -0.00151714 0.00103875 0.00359603 -0.00616006 0.00871302 -0.0112318 -0.0137466 0.0162872 0.0188015 -0.0212445 -0.0236793 0.0261561 -0.0285907 0.0309201 0.0332384 0.0356121 -0.0379276 -0.0401072 -0.042274 0.0445073 0.0466663 0.0486623 -0.0506446 0.0527024 0.0546703 -0.0564517 -0.0582193 0.0600694 -0.0618148 0.0633537 0.0648795 -0.0664931 -0.0679884 0.0692606 0.0705211 0.0718732 -0.0730948 -0.0740803 -0.075056 0.0761257 0.0770545 0.0777376 0.0784135 -0.0791846 -0.079806 -0.0801758 0.0805414 0.0810022 -0.0813067 0.0813572 0.0814067 0.0815505 -0.0815337 0.0812638 0.0809963 0.0808214 0.0804838 -0.0798975 -0.0793171 -0.0788266 0.078174 0.0772803 0.0763958 -0.0755978 0.0746409 -0.0734536 0.0722787 -0.0711861 0.0699402 -0.0684779 0.0670308 0.0656608 0.064146 0.0624317 -0.0607347 -0.0591089 -0.0573494 0.0554101 0.0534894 0.0516332 0.0496571 -0.0475236 0.0454091 0.0433512 0.0411899 0.0388961 0.0366206 -0.0343927 0.0320805 0.0296633 0.0272621 -0.0248982 0.0224718 -0.0199701 -0.0174804 -0.0150165 -0.0125142 0.00996867 -0.0074293 -0.00490229 -0.00236371 -0.000184025 -0.00273357 0.005286 -0.0078209 -0.0103287 -0.0128487 -0.015389 -0.0178804 0.0203063 0.0227574 0.0252488 -0.0276576 -0.0299605 -0.0323043 0.0347113 0.0369999 -0.0391399 -0.0413395 0.0436287 0.0457617 -0.0477008 -0.0497216 0.0518622 0.0538068 0.0555094 0.057319 0.0592833 -0.0610103 0.0624436 0.0640126 0.0657769 0.0672607 0.0683951 -0.0696974 -0.0712423 0.0724621 0.0732716 0.0742844 -0.075595 -0.0765351 0.0769974 0.0777013 0.0787681 -0.0794187 -0.0795155 -0.0798944 -0.0807136 0.0810714 0.0807884 0.0808288 -0.0814022 -0.0814718 -0.0807987 -0.080489 -0.0808247 0.0806194 0.0795503 0.078879 -0.0789909 -0.0785353 -0.0770689 0.0760218 0.0759294 0.0752626 -0.0734033 0.0719593 -0.0716852 -0.0708664 -0.0686279 0.0667511 0.0663157 -0.0654339 0.0628481 0.060475 0.0598815 -0.0590719 -0.0562133 0.0532332 0.052425 -0.0518932 -0.0489466 0.0451839 -0.0439172 0.0439481 0.0414047 0.0366967 0.034163 -0.0348345 -0.0340447 0.029063 0.0233922 0.0214587 -0.0236128 0.025379 0.0208341 0.0106433 0.0225106 -0.0225078 0.0117378 0.0117379 
-1.21571e-05 -3.42842e-05 9.41238e-05 -0.000317721 -0.00158768 0.0102071 -0.0175972 0.0193234 -0.0238526 -0.0311383 -0.0323303 0.0338773 -0.0407042 -0.0441297 0.0440879 0.0478612 -0.0532187 0.0547073 0.0552877 0.0593565 -0.0632272 -0.0638894 -0.0648803 -0.0685102 -0.0712003 -0.0714197 0.072459 0.0754007 -0.0771363 0.0770055 0.0778359 0.080009 -0.0809311 0.0804471 0.0809062 -0.0822956 -0.082494 -0.0816318 0.0816236 0.0822445 -0.0817838 -0.0805222 0.0799978 0.0798838 0.0788191 -0.0771507 -0.076096 -0.0752945 0.0736809 0.0716148 0.0700429 -0.0686139 -0.0665111 -0.0640731 0.0620191 -0.0600335 0.0575081 -0.0547397 0.052257 -0.0497956 -0.0469219 -0.0438784 0.0410349 0.0381872 0.0350466 -0.0317948 -0.0286702 -0.0255323 0.022212 0.0188282 0.0155107 -0.0121835 -0.008775 0.00534153 0.00192527 -0.00148797 -0.00489125 0.008288 -0.0117063 0.0151022 0.0184071 -0.0216799 -0.0250034 0.0282813 -0.0313973 0.0344606 0.0375956 0.0406594 0.0435013 0.0462741 -0.0491324 0.0518936 0.0543832 -0.0567915 -0.0592929 0.0616725 0.0637416 0.0657204 0.067795 0.0697255 0.0713171 0.0728127 -0.0744028 0.07583 -0.0769002 -0.0778719 0.0789335 0.0798178 -0.080337 -0.0807579 0.0812619 -0.0815792 0.0815331 0.0813913 0.0813244 -0.0810668 -0.0804566 -0.0797556 0.0791203 0.0782962 0.0771386 -0.0758973 0.0747122 0.0733457 -0.0716727 -0.0699248 0.0682236 -0.0663543 0.0642121 0.0620053 -0.059836 -0.0575173 0.0549654 0.0523601 0.0497838 -0.0470815 -0.0441908 -0.0412584 0.0383472 0.035338 0.0321887 0.0290098 -0.025845 -0.0226139 -0.0192936 0.0159557 0.0126255 -0.00926354 0.00586485 0.00245972 -0.000943336 0.0043416 -0.00772388 -0.0111024 -0.0144839 -0.0178231 0.0210945 0.0243531 0.0276196 -0.0308061 -0.033875 -0.036924 0.0399854 -0.04293 0.0457104 -0.0484656 0.0512376 -0.053858 0.0562718 -0.0586571 -0.0610638 -0.0632869 -0.0652661 0.0672158 0.0691914 0.0709553 -0.072444 -0.0739042 -0.0753951 -0.0766509 0.0776068 -0.0785372 -0.0795034 -0.0802163 -0.080612 -0.080987 0.0814029 -0.0815535 -0.0813773 -0.0811866 0.0810419 -0.0806265 0.0798827 0.0791317 0.0784314 0.077462 -0.0761713 0.0748809 0.073645 0.0721494 -0.0703476 -0.0685537 0.0668169 -0.0648372 -0.0625753 -0.0603275 -0.0581377 -0.0557297 0.0530718 0.0504327 0.0478496 -0.0450809 -0.0421029 -0.0391457 0.0362391 0.0331874 -0.029975 -0.0267818 0.0236295 0.0203799 -0.0170266 -0.0136862 0.0103714 0.00701434 0.00361876 0.000224293 -0.00316681 0.00653834 -0.00987495 -0.0132285 -0.0166094 -0.0199026 -0.0230788 0.0262969 0.0295838 -0.0327089 -0.0356255 -0.0386167 0.0417306 0.0446041 -0.0471668 -0.0498444 -0.0527142 0.0552613 0.0573826 0.0596668 0.0622317 -0.0643896 -0.0659912 -0.0678098 0.0700213 0.0717422 0.0727564 0.0740455 0.0758696 -0.0771242 -0.0774956 -0.0781988 0.0796168 0.0803983 0.0800857 -0.0801513 -0.0811604 -0.0814902 0.0804686 -0.0798446 0.0804563 0.0803919 0.0786576 -0.0772817 -0.0775146 0.0771635 -0.0747458 -0.0725281 -0.0723888 0.0719303 0.0689236 -0.0657192 -0.0651461 0.0648647 0.0615171 -0.0571003 0.0557945 -0.056094 -0.0530664 -0.0472277 -0.0441499 0.0451813 0.0442858 -0.0379077 -0.0305986 -0.0281458 0.0310372 -0.0334037 -0.0274453 -0.0140306 -0.0298318 0.0298281 -0.0156261 -0.0156262 
-1.54015e-05 -4.33698e-05 0.000118778 -0.000399611 -0.0019889 0.0127416 -0.0219401 0.0240543 -0.0295902 -0.0385263 -0.0398863 0.041615 -0.0497868 -0.0537604 0.0534424 0.0576813 -0.063781 0.065185 0.065427 0.0697275 -0.0737367 -0.0739303 -0.0744186 -0.0778606 -0.0801675 -0.0796098 0.0798774 0.0821667 -0.0830695 0.0818753 0.0816146 0.0826867 -0.0823921 0.0805792 0.0796255 -0.0795155 -0.078183 -0.0757623 0.0740553 0.0728535 -0.0706275 -0.0676342 0.0651905 0.0630249 0.0600522 -0.0565541 -0.0534484 -0.0504763 0.0469141 0.0430115 0.0393624 -0.0357635 -0.0317818 -0.0276024 0.023561 -0.0195315 0.0153103 -0.0110027 0.0067422 -0.0024877 0.00178724 0.00606111 -0.0103556 -0.0146276 -0.0187706 0.0228442 0.0269848 0.0310723 -0.0349048 -0.0386152 -0.0424206 0.0461348 0.0494922 -0.0526879 -0.0559917 -0.059164 -0.0619024 0.0644512 -0.0671092 0.0695979 0.0716 -0.0733951 -0.0752916 0.0769872 -0.0781673 0.0791326 0.0801859 0.0810151 0.0813229 0.0814169 -0.081582 0.0815108 0.0809333 -0.0801512 -0.0794224 0.0784567 0.077019 0.0753932 0.0738038 0.0719888 0.0697533 0.0673523 -0.0649731 0.0623915 -0.0594547 -0.0563804 0.0533166 0.0500841 -0.0465732 -0.0429566 0.039343 -0.0356036 0.0316703 0.027666 0.023661 -0.0195805 -0.0153951 -0.0111745 0.00695328 0.00271187 -0.00154441 0.00580023 -0.0100534 -0.014269 0.0184118 0.02252 -0.0266198 0.0306245 -0.0344742 -0.0382583 0.0420263 0.0456446 -0.0490342 -0.0523313 -0.0556041 0.0586776 0.0614601 0.0641283 -0.066764 -0.0691587 -0.0712132 -0.0731375 0.0750222 0.0766339 0.0778711 -0.0789687 -0.0800212 0.0807799 -0.081146 -0.0813696 -0.0815451 0.0814181 -0.0808972 -0.0802372 -0.0795287 -0.0785224 0.0771369 0.075622 0.0740609 -0.0722196 -0.0700299 -0.0677256 0.0653802 -0.0627847 0.0598861 -0.0568921 0.0538641 -0.0506281 0.0471469 -0.0435926 -0.0400133 -0.0362781 -0.0323663 0.0284054 0.0244294 0.020358 -0.0161864 -0.0119901 -0.00778879 -0.00355858 -0.000690305 0.00494069 0.00918667 0.0133915 0.0175316 0.0216524 -0.025761 0.0297576 0.0336073 0.0374203 -0.041216 0.0448309 -0.0482209 -0.0515616 -0.0548827 -0.0579591 0.06074 -0.063464 -0.0661699 -0.0685748 0.0706235 0.0726132 -0.0745901 0.0762198 0.0774452 0.0786149 0.0797805 0.0805654 -0.0809123 -0.0812116 -0.0815187 0.0814258 0.0808777 0.0802941 -0.079732 -0.0787668 0.0773469 0.0759057 -0.0745007 -0.0727066 0.0704769 0.0682408 -0.0660543 -0.0635107 -0.0605698 -0.0576359 -0.0547615 0.0515799 -0.0480593 -0.0445552 -0.0411137 -0.0374332 -0.033492 0.02957 0.0257041 -0.0216844 -0.0175028 -0.0133344 0.00920106 0.00501529 -0.000787822 0.00344379 0.00768038 -0.011854 -0.0159263 -0.0200331 -0.0242101 0.0281972 0.0319147 0.0357106 -0.0396743 -0.0433139 -0.0464859 -0.0497928 -0.0534068 0.0565606 0.0590131 0.061665 -0.0648169 -0.0673803 -0.0689626 0.0708079 0.0734144 0.0753279 -0.0759203 0.0768186 -0.0788281 -0.0800918 -0.0796152 0.0794287 0.0808161 -0.0815098 0.0799426 0.0785162 0.079262 -0.0795759 -0.0769944 0.0741219 0.0741446 -0.074423 -0.071112 0.0665004 -0.0654469 0.0662112 0.0629849 0.0563653 0.0529832 -0.054482 -0.0536075 0.0460501 0.0373107 0.0344421 -0.0380858 0.0410617 0.0337752 0.0172824 0.036998 -0.0369934 0.0194936 0.0194937 
-1.87854e-05 -5.28043e-05 0.000144191 -0.000483155 -0.002393 0.0152647 -0.0262455 0.028719 -0.0351792 -0.0456539 -0.047098 0.0488771 -0.0581633 -0.0624912 0.061734 0.0661456 -0.0726244 0.0736744 0.0733002 0.0773784 -0.0810555 -0.080439 -0.0800283 -0.0826993 -0.0840794 -0.0823488 0.0813589 0.0823367 -0.0818386 0.0791691 0.0772969 0.0766032 -0.074562 0.0710492 0.0682015 -0.0660054 -0.0627246 -0.0584868 0.0547251 0.0512833 -0.0470669 -0.0422739 0.037771 0.0333974 0.0285631 -0.0234354 -0.0184409 -0.0134857 0.00836328 0.00315968 -0.00202888 0.0071993 0.0122772 0.0172773 -0.0223416 0.0273642 -0.0320761 0.0365931 -0.0412183 0.0457527 0.0498045 0.0535783 -0.0574755 -0.0612228 -0.0643635 0.0671721 0.0700979 0.0728163 -0.0748524 -0.0765279 -0.0783001 0.0798184 0.0806253 -0.0810658 -0.0815751 -0.0818013 -0.0813306 0.080508 -0.079725 0.0786506 0.0769328 -0.0748957 -0.0728723 0.0705719 -0.0677148 0.0645862 0.0614522 0.0580775 0.0542595 0.0502299 -0.0461845 0.0419545 0.0374136 -0.0327294 -0.0280285 0.0232151 0.0182341 0.0131827 0.00812311 0.00303377 -0.00207733 -0.00718504 0.012285 -0.0173266 0.0222496 0.0270988 -0.0319187 -0.0365933 0.0410216 0.045313 -0.0495505 0.0535629 -0.0572208 -0.0606891 -0.0640792 0.0671766 0.0698364 0.072267 -0.0745979 -0.076586 -0.0780819 0.0793244 -0.0804511 -0.0812056 0.0814447 0.0814222 -0.0812751 0.0807495 -0.079717 -0.0784311 0.0770204 0.0752489 -0.0730092 -0.0705399 -0.0679549 0.0650496 0.0617427 0.0582434 -0.0546463 -0.0507905 -0.046623 -0.0423113 0.0379273 0.0333636 0.0285958 -0.0237396 -0.0188429 0.0138578 -0.00878776 -0.00368888 0.00141496 -0.00650855 0.0115641 0.0165886 0.0215815 0.0264645 -0.0311893 -0.0358273 -0.0403985 0.0447651 0.0488637 0.0528268 -0.0566923 0.0602695 -0.0634854 0.0665275 -0.0694475 0.0720119 -0.0741438 0.0760758 0.0778698 0.0792617 0.0801759 -0.0808781 -0.0814357 -0.0815686 0.0812079 0.0806369 0.0799245 0.0787911 -0.077178 0.0753697 0.0734326 0.0711044 0.06834 0.0654073 -0.0623665 0.0589897 0.0552477 0.0513733 -0.0474177 0.043204 -0.0387195 -0.0341445 -0.0295191 -0.024732 0.0197872 -0.0147965 -0.00978684 -0.00472544 -0.000368049 -0.00546405 0.0105498 -0.0155697 -0.0204903 -0.0253747 -0.0302247 -0.0348905 0.0393269 0.0436961 0.0480143 -0.052036 -0.0557067 -0.0592892 0.0628138 0.0659422 -0.0686133 -0.0711866 0.0737056 0.0757479 -0.0772483 -0.0786526 0.0800167 0.0808484 0.0810806 0.0812289 0.0813601 -0.0809328 0.0798799 0.0787634 0.0776588 0.0760028 0.0737303 -0.0714188 -0.06915 0.066372 0.0630246 0.0596628 -0.0563696 -0.0526458 0.0484397 0.044238 0.0401188 -0.0356825 -0.0308931 -0.0261162 -0.0214132 0.0165391 0.0114856 0.00643675 -0.00141889 0.00359627 0.00856901 0.013564 0.0186199 -0.0234797 -0.0280207 -0.0326297 0.0374588 0.041891 0.0456635 -0.0495622 -0.0539298 -0.0577127 0.060415 -0.0632949 0.0670111 0.0700028 0.0713903 -0.0729592 -0.0758839 0.0780571 -0.0779725 -0.0779387 -0.0799664 0.0814547 0.0798825 -0.0779194 -0.0789062 0.0800652 0.0772672 -0.07297 0.0724895 -0.0739336 -0.0708343 -0.0638399 -0.0604323 0.0625212 0.0618163 -0.0533393 -0.0434201 -0.04026 0.0446734 -0.0482689 -0.0397588 -0.0203672 -0.0439719 0.0439665 -0.0233352 -0.0233352 
-2.23394e-05 -6.26638e-05 0.000170525 -0.0005687 -0.00280056 0.0177741 -0.030506 0.0333045 -0.0405915 -0.0524728 -0.053903 0.0555808 -0.0657148 -0.0701759 0.068798 0.0730552 -0.0795104 0.0799165 0.0786346 0.0820108 -0.0848667 -0.0831043 -0.0814133 -0.0827459 -0.0826895 -0.079449 0.0767935 0.075897 -0.0735499 0.0691372 0.0653111 0.0624029 -0.0583239 0.0529999 0.0480895 -0.0435884 -0.0383228 -0.0324061 0.0267031 0.0211397 -0.0152401 -0.00911806 0.00304401 -0.00299647 -0.00897708 0.0148724 0.020831 0.026757 -0.0322883 -0.0375185 -0.042868 0.0481265 0.0527321 0.0568936 -0.0611851 0.065302 -0.0685921 0.0713551 -0.0742268 0.0768422 0.0785415 0.0796828 -0.0808934 -0.0817865 -0.0817557 0.0811806 0.0806309 0.0797352 -0.077981 -0.0757347 -0.0734761 0.0708813 0.0675556 -0.0638216 -0.0600512 -0.0559934 -0.0513801 0.0464665 -0.0415102 0.0363497 0.0308409 -0.0251551 -0.0194392 0.0136286 -0.0076915 0.00170711 -0.00427834 -0.0102334 -0.0160958 -0.021879 0.0276221 -0.0332063 -0.0384978 0.0435958 0.0486063 -0.0533386 -0.0576115 -0.0615967 -0.065448 -0.0689226 -0.0718153 -0.0743533 0.0767182 -0.0786384 0.0799065 0.0807841 -0.0814626 -0.0816655 0.0812021 0.0803458 -0.0792819 0.077752 -0.0755969 -0.0730791 -0.0703649 0.0672349 0.0635711 0.0596045 -0.0554724 -0.0510114 -0.0461497 0.0410691 -0.0358717 -0.0304618 0.0248146 0.019049 -0.0132288 0.00733252 -0.00137877 0.00458488 -0.010533 -0.0164125 0.0221679 0.027826 0.0333968 -0.0387584 -0.0438274 -0.048702 0.0534231 0.0578103 0.0617631 0.0654424 -0.068914 -0.0719539 -0.0744551 0.0766287 0.0785572 -0.0799917 0.0808294 0.0813138 0.0815369 -0.0812449 0.0803482 0.0791029 0.0776027 0.07561 -0.0730552 -0.0701859 -0.0670904 0.0635672 0.0595715 0.0553213 -0.0508933 0.0461398 -0.0410427 0.0357712 -0.0303858 0.0248064 -0.0190412 0.0131943 0.00730711 0.00137584 -0.00456732 0.0104952 0.016387 0.0221665 -0.0277823 -0.0332899 -0.0386896 -0.0438271 0.0486378 -0.0532598 -0.0577128 -0.0617729 -0.0653691 -0.0687152 0.0718475 -0.0744867 -0.0765623 -0.0783501 0.0798995 -0.0808953 0.0812734 0.0813525 0.0811905 0.0804598 -0.0791082 0.0774725 0.0756148 0.0732209 -0.070255 -0.0670435 0.0636476 -0.0597948 -0.0554679 -0.0509526 -0.0463046 -0.0413204 0.0360025 0.0305655 0.025055 -0.0193622 -0.0135087 -0.00760976 0.00169694 -0.00422266 0.0101095 0.0159719 -0.0217956 -0.027442 0.0328559 0.0381864 -0.0434397 -0.0483376 -0.0528114 -0.0571598 -0.0614116 0.0651504 -0.0682966 -0.0712957 -0.0742011 -0.07647 -0.0780139 0.0794105 0.0807382 -0.0813522 -0.081157 -0.0808332 0.0804836 0.0793988 -0.0774785 -0.0754619 -0.0734731 0.0707893 0.0673094 0.0637714 0.060313 -0.056264 -0.0515304 -0.0467729 0.0421278 0.0370587 0.0314948 0.0259272 0.0204637 -0.0147976 -0.0089117 -0.00302077 -0.00284315 -0.00864812 -0.0143022 0.0199854 0.0258222 0.0313229 -0.0361903 0.0411216 -0.0465326 -0.0513579 -0.0549314 0.0585749 0.0632204 -0.0671358 0.0690121 0.0708437 0.0744471 -0.0774306 -0.0773934 0.0768756 0.0791591 -0.0814943 -0.0796852 0.0762239 -0.0766416 0.078982 0.0763566 0.069431 0.0663024 -0.0691126 -0.0687417 0.0596402 0.0488281 0.0455188 -0.05072 0.0549462 0.0453348 0.0232552 0.0507173 -0.0507111 0.0271456 0.0271457 
-2.60958e-05 -7.30276e-05 0.00019795 -0.000656599 -0.00321218 0.0202674 -0.0347144 0.0377983 -0.0457999 -0.0589371 -0.0602425 0.0616494 -0.0723342 -0.076686 0.0744938 0.0782478 -0.0842536 0.0837211 0.0812456 0.083444 -0.0850056 -0.081799 -0.0785005 -0.0779978 -0.0760853 -0.0711091 0.0665206 0.0633646 -0.0589182 0.0527079 0.0468462 0.0415905 -0.0355087 0.0285956 0.0218516 -0.0152894 -0.00845693 -0.00144671 -0.00556008 -0.0125379 0.0192634 0.0257192 -0.0322719 -0.0387832 -0.0446155 0.0498872 0.0552857 0.0605472 -0.0648296 -0.0683847 -0.0720426 0.0754454 0.0777073 0.0791773 -0.0806961 0.0818628 -0.0818627 0.0810917 -0.0803092 0.0791264 0.0768737 0.0739418 -0.0709519 -0.0675753 -0.063327 0.0585467 0.0536884 0.04852 -0.0427516 -0.0366367 -0.0304563 0.0240956 0.0174484 -0.0106601 -0.00384947 0.00297546 0.00976494 -0.01649 0.0231705 -0.0296852 -0.0358662 0.0417958 0.0476022 -0.0530725 0.0579624 -0.0624495 -0.0667369 -0.0705494 -0.0736088 -0.0761633 0.0784569 -0.0801867 -0.0810788 0.0814215 0.081469 -0.0809258 -0.0795532 -0.0776471 -0.075446 -0.072694 -0.0692093 -0.0652644 0.0610619 -0.0564112 0.0512003 0.0456508 -0.0399154 -0.033887 0.0275263 0.0209829 -0.0143525 0.00761978 -0.000812473 0.00600468 0.0127939 -0.0194808 -0.0259823 -0.0323228 0.0385182 0.0444152 0.0498927 -0.0550585 0.059974 0.0644262 -0.0682744 -0.0716969 0.0747891 -0.0773028 0.0790969 0.0803995 -0.0813273 -0.0816247 0.0811667 0.0802066 0.0788688 -0.076918 -0.0742591 -0.0711426 0.0676886 0.0637074 0.0591419 0.0542132 -0.049026 -0.0434567 -0.03749 0.0312928 0.0249466 -0.0184073 0.0116993 0.0049172 -0.00188655 0.0086709 -0.0153782 -0.0219974 -0.0285073 -0.0347853 0.04075 0.0464766 0.0519746 -0.0570517 -0.0616139 -0.0658169 0.0696973 -0.0730122 0.0756675 -0.077884 0.0797201 -0.0809069 0.0813618 -0.081348 -0.0809389 -0.0798675 -0.078072 0.0758302 0.0732223 0.0700125 -0.0661656 -0.0619436 -0.0574254 -0.0524331 0.0469614 -0.0412251 -0.0352945 -0.0290724 -0.0225822 -0.0159643 0.00927395 -0.00251001 0.00427922 0.0110493 -0.0177646 0.0243232 -0.0306587 -0.0368351 -0.042839 -0.0484686 0.0536478 -0.0585504 -0.0631863 -0.0672667 0.0707147 0.0738043 -0.0765666 0.0786493 0.0799836 0.0809208 0.0815102 0.0813679 -0.0804403 -0.0791232 -0.0774784 0.0751294 0.0720435 0.0686182 -0.064922 -0.0606279 0.0557275 0.0505724 -0.0452297 -0.0394659 0.0332978 0.0269814 -0.0205743 -0.0139767 -0.00723033 -0.000448584 0.00632883 -0.0130346 0.0196034 0.0261035 0.0325216 0.0386006 0.044254 -0.0497565 -0.05513 0.0599201 0.0640199 0.0679188 -0.0716808 -0.0746651 0.0767459 0.0786115 0.0803731 -0.0812372 -0.0810595 -0.0806856 -0.0802755 0.0789404 0.0765207 0.0739483 -0.0714259 -0.0680547 -0.063668 -0.0591824 -0.0548252 0.0498 0.0439549 0.0380588 -0.0323234 -0.0261954 -0.0195844 0.0129507 0.00641426 -0.000170669 0.00674248 -0.0133287 0.0200396 0.0264361 0.032137 -0.0378365 -0.044116 0.0497907 -0.0538648 -0.0578247 -0.0631336 0.0677951 0.0696947 -0.0710554 -0.0748885 0.0786351 0.0782488 -0.0761189 0.0777375 -0.0811739 -0.0793706 -0.0729736 -0.0704404 0.0741037 0.0742401 -0.0648361 -0.0534474 -0.0501454 0.0561526 -0.0610204 -0.050446 -0.0259185 -0.0571991 0.0571921 -0.0309199 -0.03092 
-3.00885e-05 -8.39791e-05 0.000226639 -0.000747216 -0.00362845 0.0227425 -0.0388635 0.042188 -0.0507782 -0.0650029 -0.066062 0.0670136 -0.0779278 -0.0819124 0.0787082 0.0816013 -0.0867261 0.0849719 0.0810427 0.0816221 -0.081466 -0.0765854 -0.0714436 -0.0687302 -0.0646834 -0.0579 0.0513035 0.0457455 -0.0392053 0.0314015 0.023734 0.0163713 -0.0086894 0.000762456 -0.00716996 0.0150727 0.0226147 0.0297305 -0.0369401 -0.0441195 0.0503837 0.0558137 -0.0613442 -0.0667126 -0.070802 0.073856 0.0769558 0.0797365 -0.0810868 -0.0813668 -0.081614 0.0814313 0.0798712 0.07734 -0.07471 0.0716252 -0.0673906 0.0623881 -0.0572593 0.0517492 0.0454466 0.0386498 -0.0317508 -0.0246316 -0.0171518 0.00948668 0.00179264 -0.00590036 0.0135068 0.0209912 0.0283958 -0.0355564 -0.0422248 0.0485007 0.0545753 0.0601822 0.0649814 -0.0691851 0.0730782 -0.0763376 -0.078599 0.0801514 0.08132 -0.0817748 0.0811848 -0.0798724 -0.078157 -0.0757485 -0.0723916 -0.0683978 0.0640435 -0.0591173 -0.0534641 0.0473439 0.0409653 -0.0342205 -0.0270615 -0.0196652 -0.0121594 -0.00454934 0.00311557 0.01076 -0.0183397 0.0257426 -0.0328433 -0.0396735 0.0462651 0.0524197 -0.0579654 -0.0630321 0.0677134 -0.071756 0.0749732 0.0775723 0.0796897 -0.0810544 -0.0814949 -0.0812657 0.0805249 0.0790222 0.0766253 -0.0736008 0.0701075 0.0659499 -0.061051 -0.055653 0.0498974 -0.0436694 0.0369528 0.0299337 -0.0227215 -0.0152964 0.00770015 3.75859e-05 -0.00762297 0.0152049 0.0226203 0.0298591 -0.0368983 -0.0435759 -0.0497755 -0.0555827 0.0610184 0.0658581 0.0699767 -0.0735442 -0.0766189 0.0789448 -0.080408 -0.0812395 -0.081526 0.0810141 -0.0796182 -0.0775988 -0.0750585 -0.0717818 0.0677223 0.063134 0.0581224 -0.05254 -0.0463842 -0.0398667 0.0330832 -0.0259757 0.0185836 -0.0110449 0.00343471 0.00420482 -0.0118006 0.0193106 0.0266882 0.0337932 0.0405318 -0.0469678 -0.0530869 -0.0586664 0.0636066 0.0680731 0.0720842 0.0753608 -0.0778129 0.079689 0.0810363 0.0815546 0.0811765 0.0802021 -0.0787006 0.07639 0.0732352 0.069547 -0.0654071 0.0605916 -0.0551019 -0.0492141 -0.0430118 -0.0363641 0.0293078 -0.0220401 -0.014636 -0.00708319 -0.000552071 -0.00818836 0.0157691 -0.023175 -0.0303203 -0.0372634 -0.0439735 -0.0502024 0.0558573 0.0611426 0.0660576 -0.070245 -0.0736172 -0.0765113 0.0789571 0.080524 -0.0811412 -0.0812435 0.0808881 0.0796211 -0.0773975 -0.0746957 0.0715933 0.0676733 0.0629222 0.0577938 0.0523748 -0.0463505 0.0397416 0.0329009 0.0259101 0.0186203 0.0110865 -0.00348537 0.00412318 -0.0116683 -0.0190608 -0.0263652 0.0335613 0.0403219 -0.0465236 -0.0525151 -0.0583345 0.0633867 0.067513 0.0713575 0.0750327 -0.0776973 -0.0791555 -0.0803162 0.0813775 0.081313 0.07989 0.0782032 0.0765351 -0.0737811 -0.0696804 -0.0653811 0.0612273 0.0561905 0.0500131 -0.0437099 -0.0376251 -0.0310075 0.0236784 -0.0162856 0.00904351 0.00171681 -0.00563598 0.0129934 0.0205169 -0.0276816 0.0338885 0.0399702 0.0469064 -0.0532466 -0.0573046 0.0608204 0.0663388 -0.0716381 -0.0730276 0.0726594 -0.0757336 0.0804299 0.0797772 0.0743631 0.0727379 -0.077379 -0.0781973 0.0688307 0.0572032 0.0540756 -0.0609053 0.0664247 0.0550399 0.0283315 0.0633836 -0.0633759 0.0346531 0.0346532 
-3.43536e-05 -9.56064e-05 0.000256777 -0.000840927 -0.00404996 0.0251971 -0.0429462 0.0464615 -0.0555014 -0.0706294 -0.0713111 0.0716122 -0.082416 -0.0857676 0.0813574 0.0830368 -0.0868613 0.0836309 0.0780329 0.0766161 -0.0744012 -0.0677126 -0.0606153 -0.0554799 -0.0492027 -0.0407264 0.0322734 0.0244542 -0.0161114 0.00718949 -0.00173263 -0.0105826 0.0191098 -0.0271621 -0.0352781 0.0434009 0.050462 0.0564318 -0.0624532 -0.0683254 0.0726551 0.0756158 -0.0785485 -0.081126 -0.0819891 0.0814716 0.0808299 0.0796973 -0.0769765 -0.0730696 -0.0689779 0.0643918 0.0585885 0.0519413 -0.0451181 0.0379406 -0.0300804 0.0218039 -0.0134384 0.00497312 -0.00357363 -0.0120886 0.0205439 0.0287853 0.0365384 -0.0438553 -0.0509363 -0.0574988 0.0631214 0.0680022 0.0724867 -0.0762224 -0.0787483 0.0803664 0.0814843 0.0817472 0.0807454 -0.078828 0.0763932 -0.0731465 -0.0687933 0.06367 0.0581102 -0.0519281 0.0449757 -0.0375233 -0.0298048 -0.0217688 -0.0134154 -0.00490908 -0.00363123 0.0121217 0.0204384 -0.0285431 -0.0364294 0.0439003 0.0507501 0.0570663 0.0629383 0.0680959 0.0723019 0.075749 -0.0785956 0.0805495 -0.0813898 -0.0813786 0.0807121 0.0791272 -0.0764587 -0.0729928 0.0689311 -0.0640843 0.058367 0.052042 0.0452877 -0.0380185 -0.0302362 -0.0221377 0.0138559 0.00542074 -0.00308826 0.011571 -0.0199535 -0.0280987 0.0358718 0.0432839 -0.0503247 0.0567757 -0.0624772 -0.0675479 0.0720366 0.0756825 -0.0783332 -0.0801935 -0.0813599 0.081574 0.0807191 0.0790511 -0.0766966 -0.0734437 -0.069231 -0.064322 0.058853 0.0526948 0.0458491 -0.038542 -0.0308996 0.0228972 -0.0145956 -0.00614439 0.00235806 -0.0108271 0.0191577 0.0273032 0.035206 0.0426849 -0.0496127 -0.0560559 -0.0620033 0.0672069 0.0715416 0.0751781 -0.0781513 0.080186 -0.0811834 0.0813905 -0.0808813 0.0793992 -0.0768885 0.0736319 0.0697296 0.0649869 0.0594007 -0.0532398 -0.0466146 -0.0394277 0.0317269 0.0237186 0.0155063 0.00711039 0.00138056 -0.00986315 -0.0182563 -0.0264196 -0.0342407 -0.0417439 0.0488828 -0.0554129 -0.0612194 -0.0664583 0.0711239 -0.0749019 0.0776958 0.0797741 0.0811718 0.0815519 -0.0808537 0.0794168 0.0773109 0.074231 -0.0701619 -0.0654576 0.0602105 -0.0542013 -0.0474629 -0.040298 -0.0328065 -0.0249 0.0166535 0.00825557 -0.000203688 0.00865212 0.0169856 0.0251792 -0.0331683 -0.0407131 0.0476973 0.0542853 -0.0604506 -0.0658037 0.0702346 0.0740917 -0.0773933 -0.0796448 -0.0807585 -0.0812277 -0.0811141 0.0798865 -0.0774924 -0.0744964 -0.0709952 -0.0665063 -0.0610206 0.0550749 0.0487832 -0.041806 -0.0341818 -0.0263059 0.0182844 0.0100116 -0.00157557 0.00688136 0.0152923 -0.0234559 -0.0312318 -0.038821 -0.0462308 0.0529114 0.0586652 0.064085 -0.069287 -0.073378 -0.0760966 -0.0784148 -0.0805839 0.0814338 0.0806347 0.0794484 -0.0782685 -0.0757853 -0.0716116 0.0671218 0.0628199 0.0574712 -0.050682 0.0436743 -0.0369578 -0.0296599 -0.0215151 0.0132591 0.00517253 0.00292382 -0.010874 -0.0187734 -0.0270286 0.0348393 0.0410572 -0.0468065 -0.0539982 0.0608715 0.0642741 -0.065998 0.0707098 -0.0767769 -0.077563 -0.0735587 -0.073135 0.0788625 0.080531 -0.07155 -0.060035 -0.0572548 0.0649207 -0.0710998 -0.0590696 -0.0304707 -0.0692388 0.0692304 -0.0383401 -0.0383402 
-3.89299e-05 -0.000108003 0.000288556 -0.00093812 -0.00447734 0.0276291 -0.0469555 0.0506071 -0.0599458 -0.0757784 -0.0759445 0.0753925 -0.0857354 -0.0881872 0.0823887 0.0825207 -0.0846555 0.079739 0.0723204 0.0686214 -0.0641169 -0.0556046 -0.0465871 -0.0390149 -0.0306193 -0.0207641 0.0108446 0.00119977 0.00837207 -0.0176878 -0.0270274 -0.0364152 0.0447541 -0.0518297 -0.0588923 0.0658725 0.0711143 0.0746373 -0.078047 -0.081109 0.0821662 0.0814737 -0.0805562 -0.0791035 -0.0758067 0.0710478 0.0660123 0.0604392 -0.053531 -0.0456631 -0.0375725 0.0291448 0.0201068 0.0107188 -0.0012705 -0.00816411 0.017424 -0.0264273 0.0352574 -0.0436672 -0.0512105 -0.0579959 0.0643665 0.0699629 0.0742195 -0.0774024 -0.0799911 -0.0815979 0.0816873 0.0806195 0.0788961 -0.0761878 -0.072098 0.0670036 0.0613386 0.0548991 0.0474861 -0.039418 0.0310018 -0.0221955 -0.0130036 0.00362759 -0.00577934 0.0150981 -0.024158 0.0329062 0.0413412 0.0492178 0.0562645 0.062579 -0.0682861 0.0730736 0.0766459 -0.0792237 -0.0810178 0.0817193 0.0810777 0.0793883 0.0769007 0.0733741 0.068654 0.0630493 -0.056802 0.0497873 -0.04197 -0.0336114 0.0249072 0.01587 -0.00657828 0.00280343 -0.0121532 0.0213284 -0.0301667 -0.0386298 -0.0466819 0.0540845 0.0606366 0.0664301 -0.0715129 -0.0756036 -0.0785117 0.0804376 -0.0814978 -0.0814277 0.0800898 0.0777511 -0.0745713 0.0703572 -0.0650521 -0.0589345 0.052177 0.0446969 -0.0365255 -0.0278966 -0.018965 0.0097744 0.000431681 -0.00892168 0.0181742 0.027166 0.0357429 0.0438846 -0.0515401 -0.0584664 -0.0644998 0.0697451 0.0742181 -0.0776426 0.0798823 0.0811467 0.0815123 -0.080726 0.0787088 0.075732 0.0719165 0.0670844 -0.0612295 -0.0546287 -0.047424 0.0395499 0.0310719 0.022214 -0.0131128 0.00383031 0.0055128 -0.0147946 0.023909 -0.0326754 0.0409467 -0.0487324 -0.0559754 -0.0624097 -0.0678952 0.0725749 0.0764506 0.0792214 -0.0807846 -0.0813918 -0.0811016 -0.0796371 0.0769552 -0.0733658 -0.0689721 -0.0635779 -0.0572083 -0.0501659 0.042578 -0.034373 -0.0256373 -0.0165988 0.00738402 0.0019325 -0.0112223 -0.0203884 -0.0293296 -0.0378302 0.0457476 -0.0531476 -0.059974 -0.065902 0.0708056 0.074912 -0.0782209 0.0803537 0.0812277 0.0811944 0.080309 0.07821 -0.0748749 -0.0707112 -0.0658181 0.0599256 0.0530756 0.0456434 -0.0377513 -0.0292858 0.020345 0.0111797 -0.00190949 0.00738009 -0.0165533 -0.0255601 0.0343109 0.0425098 0.0500087 0.0570002 0.0634471 -0.0688708 0.0731367 0.0766738 0.07951 0.0810509 0.081198 -0.0805554 -0.0792149 0.0765684 0.0725696 0.0678846 -0.062652 -0.0563748 0.0490693 0.0413124 0.0332559 -0.0246456 -0.0155666 -0.00634171 0.00291315 -0.0120929 -0.0210359 -0.0298218 0.0384294 0.0463179 0.0532382 0.0597662 0.0660371 -0.0710644 -0.0744957 -0.0774088 0.0801452 0.0813531 0.0805664 -0.079251 -0.0779702 -0.075197 0.0703709 -0.0650948 0.0600951 0.0539779 0.0461846 -0.0380733 -0.0303349 0.0221137 -0.0131153 -0.00399329 0.00504719 -0.0139073 -0.022046 0.0298845 0.0385721 -0.0469018 -0.0524117 0.0564282 -0.0628663 0.0703471 0.0728007 0.070584 0.0716214 -0.0785199 -0.081193 0.0729436 0.061897 0.0596388 -0.06815 0.0749944 0.0624936 0.0323156 0.0747341 -0.0747251 0.041976 0.0419761 
-4.38588e-05 -0.000121269 0.00032218 -0.0010392 -0.0049112 0.0300362 -0.0508846 0.0546133 -0.064089 -0.0804152 -0.0799222 0.0783113 -0.0878387 -0.0891305 0.0817815 0.0800651 -0.0801682 0.0734149 0.0641031 0.0579498 -0.0510581 -0.0408398 -0.0300996 -0.0202891 -0.0101052 0.000619998 -0.0113902 -0.022151 0.0321335 -0.0409284 -0.049641 -0.0583893 0.0653516 -0.0702826 -0.0750044 0.0794551 0.0816271 0.0816062 -0.0812449 -0.0803332 0.0772465 0.0723074 -0.0669791 -0.0610547 -0.0535646 0.0448926 0.0359295 0.0266062 -0.0166394 -0.00631462 0.00405651 -0.0143432 -0.0242772 -0.0337691 0.0429786 -0.0515963 0.0590234 -0.06539 0.0711634 -0.0759383 -0.0790228 -0.0807249 0.0816453 0.0813928 0.0793815 -0.0760125 -0.0718677 -0.066672 0.0600722 0.0524613 0.0442923 -0.0354711 -0.02592 0.0159327 0.00577153 -0.00446196 -0.0146036 0.0245208 -0.0341555 0.0432477 0.0514782 -0.0588967 -0.0656231 0.0713143 -0.0756067 0.0787105 0.0808707 0.0817528 0.0810528 0.0790844 -0.0761513 0.0720122 0.0664955 -0.0599418 -0.0526462 0.0445173 0.0355454 0.0260179 0.0161655 0.00606335 -0.00415331 -0.0143141 0.0242898 -0.0338649 0.042811 0.05111 -0.0587489 -0.0654308 0.0709055 0.075306 -0.0787269 0.0808675 -0.081525 -0.0809483 -0.0793117 0.0763855 0.0720659 0.066656 -0.0603685 -0.0531007 -0.0448684 0.035956 -0.0265691 -0.0167544 0.00663548 -0.00358907 0.0137629 -0.0237037 0.0332199 0.0422451 -0.0507017 -0.058319 0.0648923 0.0705023 0.0751623 -0.0785809 -0.0805958 -0.0814141 0.0811335 0.0795136 0.0764758 0.0723032 -0.0671536 -0.0608961 -0.053554 0.0454167 0.0366661 -0.0273131 0.017473 0.00737018 -0.0028295 0.0129756 -0.022894 -0.0324814 -0.0416242 -0.0500676 0.0576258 0.0643447 0.0701861 -0.0748513 -0.078192 -0.0803942 0.081502 -0.0812438 0.0795471 -0.0766935 0.0727983 -0.0676826 0.0613668 -0.0541595 -0.0462192 -0.0375053 -0.0281243 0.0183329 0.00829669 -0.00187316 0.0120127 0.0219853 0.0316566 0.0407841 -0.0491896 0.0568976 0.0638348 0.0696798 0.074286 0.07784 -0.0803464 0.0814763 0.0811523 0.0796828 -0.0771478 0.0732887 -0.068116 -0.0619853 -0.0550328 -0.0471348 0.0383869 -0.0290995 -0.0194321 -0.009435 -0.000736091 -0.0109034 0.0209221 -0.0305666 -0.0396596 -0.0482163 -0.0561412 -0.0630709 0.0688507 0.0737026 0.0776041 -0.0801256 -0.0811727 -0.0811347 0.0800677 0.0775698 -0.0736296 -0.0687145 0.0629453 0.0560463 -0.0480917 -0.0395056 0.0304426 0.0208353 0.0108276 0.000672871 -0.0094813 0.0194468 -0.0290411 -0.038281 -0.0470683 -0.0549624 -0.061779 0.0678474 0.073152 -0.0770597 -0.0794198 -0.0808384 0.0813956 0.0803818 -0.077708 -0.0741367 -0.0698302 0.0641619 0.057123 0.0494418 0.0413192 -0.0323899 -0.022739 -0.0128327 0.00283735 -0.00718553 -0.0170416 -0.0267427 -0.0362516 0.0449678 0.0525648 0.0596758 -0.0664939 -0.0718632 -0.0752965 0.0780587 0.0806535 0.0814898 -0.0799036 0.0776196 -0.0754649 -0.0716987 -0.0655274 0.0587573 0.0524068 -0.0450354 0.0359288 0.0264261 0.0173271 -0.00803258 0.00155086 -0.0111057 -0.0209419 0.0304642 0.0380143 -0.0443717 0.052516 -0.061373 -0.0656469 -0.0655268 -0.0682365 0.0763592 0.0801694 -0.0729857 -0.0627592 -0.0611946 0.0705543 -0.0780657 -0.0652769 -0.0338482 -0.079841 0.0798315 -0.045556 -0.0455562 
-4.91848e-05 -0.000135511 0.000357862 -0.00114458 -0.00535216 0.0324163 -0.0547268 0.0584691 -0.0679103 -0.0845083 -0.0832099 0.0803354 -0.0886962 -0.088582 0.079548 0.0757277 -0.0735202 0.0648515 0.0536656 0.0450176 -0.0357899 -0.0241238 -0.0120231 -0.00038769 0.0110461 0.0219616 -0.0327785 -0.0437235 0.0531237 -0.0603819 -0.0673301 -0.0741766 0.0785796 -0.0803081 -0.081562 0.0823158 0.0805014 0.0762892 -0.071539 -0.0661277 0.0587601 0.049807 -0.0404437 -0.0306363 -0.0199748 0.00879738 -0.002462 -0.0136429 0.0244316 0.0346852 0.0445817 -0.0537755 -0.0615346 -0.0679694 0.0736479 -0.078138 0.0806202 -0.0814193 0.0812547 -0.079743 -0.076244 -0.071192 0.0652547 0.0582151 0.0497628 -0.0403129 -0.0303418 -0.0198596 0.00890826 -0.00223044 -0.0133365 0.0241861 0.0344687 -0.0441048 -0.0531284 -0.0611805 -0.067827 0.073201 -0.0775362 0.080453 0.0815501 -0.0811257 -0.0795277 0.076471 -0.0717074 0.0656123 0.0585526 0.0504182 0.0411716 0.0311603 -0.0206857 0.00983803 -0.00122481 0.0122747 0.0231357 -0.0335529 -0.0432447 -0.0521592 -0.0602721 -0.0672458 -0.0727768 -0.0769969 0.0800244 -0.0815418 0.0813218 0.0796382 -0.0767121 -0.0723392 0.0664342 0.0593339 -0.0513025 0.0423059 -0.0324174 -0.0219431 -0.0111242 0.000102689 -0.0109226 -0.0217603 0.0322487 0.0421152 0.0511051 -0.0591927 0.066331 0.0721988 -0.0765681 -0.0795835 0.0813192 -0.0814994 0.0799928 0.0770719 -0.0729087 -0.0673522 0.0604049 0.0523889 0.0435276 -0.0338371 -0.0234485 -0.0126417 0.00163296 -0.00939985 -0.0202419 -0.0307349 0.040725 0.0499243 0.0581024 -0.0652684 -0.0713693 0.0760891 -0.0792529 -0.0810354 -0.081496 0.0803806 -0.077622 -0.073511 -0.0682017 -0.0615744 0.053688 0.0448657 0.0353138 -0.0250823 -0.0143363 -0.00333655 -0.00771389 0.0186072 -0.0291235 0.0391429 -0.0485201 0.0569447 -0.0642091 0.0703734 0.075388 0.0789249 0.0808508 -0.0813926 -0.080609 -0.0782449 0.0742806 0.0690464 0.0626923 0.0551092 -0.0463957 0.036889 0.0267884 0.0161659 0.00520869 -0.00584275 0.0167949 -0.0274065 -0.0374584 -0.0468855 0.0555534 -0.06311 0.0693688 0.0744702 0.0783756 0.0807124 -0.0813816 0.0806974 0.0787273 0.0751786 -0.0700685 -0.0637977 0.05652 -0.048108 -0.0386898 -0.0286313 -0.0181287 -0.00726765 -0.00374997 -0.0147141 -0.0254424 0.0356406 0.0450908 0.0538221 -0.0617187 -0.0683373 0.0735052 0.0775072 -0.0803285 -0.0814807 0.0808842 0.0790163 -0.0759682 -0.0713341 -0.0651497 -0.0579512 -0.0499089 0.0408225 -0.0308343 -0.0203675 -0.00961866 0.00131969 0.0122334 -0.0229753 -0.0333877 0.0430598 0.0517555 0.0597052 -0.0668494 -0.0725122 0.0764872 0.0793797 0.0812619 -0.081328 -0.0794435 -0.0764614 -0.0725779 0.0670582 0.0598707 0.0518763 -0.0433355 -0.0338197 -0.0234244 -0.0127128 -0.0018993 -0.00891932 -0.0194909 -0.0298445 0.0399594 0.0490723 0.0567322 -0.0637453 -0.0704408 -0.0753928 0.0779044 -0.0795372 0.0810806 0.0806563 0.0773125 -0.0730672 -0.0691393 0.0636479 -0.0555212 -0.046649 -0.0383528 0.0293904 0.0190487 -0.00836316 0.00211503 -0.0124234 -0.0217781 0.0303599 -0.0400715 0.0501792 0.0563365 0.0585363 0.0630688 -0.0724304 -0.0774814 0.0716756 0.0626075 0.0619005 -0.0721043 0.08028 0.067391 0.0350539 0.084533 -0.084523 0.0490754 0.0490756 
-5.49563e-05 -0.000150843 0.000395832 -0.00125469 -0.00580087 0.0347672 -0.0584755 0.0621638 -0.0713904 -0.0880302 -0.0857792 0.0814416 -0.0882957 -0.0865506 0.0757326 0.0696104 -0.0648909 0.0543099 0.0413695 0.0303293 -0.018973 -0.00625508 0.00668814 0.0195362 0.031501 0.0417995 -0.0517305 -0.0617861 0.0695325 -0.0742481 -0.0783397 -0.0821043 0.0829465 -0.0807042 -0.0777296 0.0740687 0.0678977 0.0594869 -0.0504709 -0.0408673 0.0299537 0.0181218 -0.00608378 0.00598896 0.0178467 -0.0292458 -0.0402841 -0.050602 0.0593659 0.0666141 0.0729761 -0.0780022 -0.0807282 -0.081463 0.0810471 -0.0791007 0.0748954 -0.0688935 0.0618706 -0.0536551 -0.0439497 -0.0332071 0.0219539 0.0102848 -0.00165927 0.0135827 0.0252864 0.0364508 -0.0466375 -0.0557941 -0.0640324 0.0709286 0.0759599 -0.0793211 -0.0813482 -0.0816661 -0.0798703 0.0763299 -0.0714817 0.0651278 0.0571109 -0.0478511 -0.0377595 0.026876 -0.0153145 0.00341346 -0.00854491 -0.0203058 -0.0315592 -0.04215 0.051983 -0.0606851 -0.0678847 0.0736514 0.0780828 -0.0808205 -0.0815732 -0.0806053 -0.0781643 -0.0740288 -0.0680877 -0.0607112 0.0522179 -0.0425954 0.0319398 0.0206077 -0.00889616 0.00299945 -0.0148241 -0.0263476 0.0373759 -0.0475772 0.0566392 0.0645285 0.0712038 -0.0763127 -0.0796008 -0.0812388 0.0813434 0.079661 0.0760845 -0.0709304 0.0644338 0.0565239 -0.0472736 -0.0370413 0.0261074 -0.0146058 0.00275715 -0.00915522 0.0208896 0.0321546 -0.0426643 -0.0523025 -0.0609377 0.0682194 0.0738993 0.0780658 -0.0807348 -0.0816138 -0.0805787 -0.0778929 0.0737123 0.0678991 0.0604947 -0.0518502 -0.0422113 0.0316406 -0.0203277 -0.00859429 0.00330085 -0.015115 0.0265787 0.0375078 0.047711 0.0568438 -0.0646519 -0.0711522 -0.0762794 0.0796993 0.0812605 0.0811776 -0.0795309 0.076105 -0.0709028 0.0642666 -0.0563951 0.0472636 -0.0370271 0.0260398 0.0145554 0.00275129 -0.00912026 0.0208151 0.0321054 0.0426649 -0.0522307 -0.0607569 -0.068114 -0.0739272 0.0780134 -0.080547 -0.0815373 -0.0806795 -0.077932 -0.073636 0.0679356 -0.0606952 -0.0520285 -0.0423285 0.0318272 -0.0206078 0.00890008 -0.00298955 -0.0148167 -0.0262957 0.0371584 -0.0473006 -0.0565447 -0.0644819 0.0708961 0.0759351 -0.079546 0.0813173 0.0811573 0.0794288 0.07622 0.0712456 -0.0645684 -0.0566481 -0.0476845 0.0376169 0.0266421 0.0151527 -0.00339315 0.00843399 -0.0200621 -0.0313209 0.0420038 0.0516819 -0.0601048 -0.0674138 0.0735116 0.0778505 0.0802763 0.0812258 0.0807456 -0.0783256 0.0739556 0.0682389 0.061351 0.0529846 0.0432778 -0.0327885 -0.0217585 0.0102132 -0.0015991 -0.0133962 0.0249625 0.0358869 -0.045876 -0.0550909 -0.0634349 0.070164 0.0750116 0.0786126 0.0810483 -0.0814074 -0.0795113 -0.0763231 0.0720958 0.0660102 0.0580218 0.0491106 0.0396119 -0.0291031 -0.0177147 -0.0060373 -0.00568283 -0.0171986 -0.0281514 0.0387167 0.048965 0.0578331 -0.0646616 0.0705856 -0.0762163 -0.0797561 -0.0801806 0.0794507 0.0788277 -0.0761705 0.0701362 0.0629711 0.0563935 -0.0486182 -0.038366 0.0273124 0.0168327 -0.006271 0.00448848 -0.0150102 0.0260292 -0.0371705 -0.0451754 -0.0498187 -0.0562534 0.0668244 0.0731849 -0.0690374 -0.0614445 -0.0617467 0.0727814 -0.0816131 -0.0688141 -0.0359209 -0.0887857 0.0887753 -0.0525295 -0.0525296 
-6.12255e-05 -0.00016739 0.000436331 -0.00137001 -0.00625798 0.0370868 -0.0621242 0.0656873 -0.0745119 -0.0909571 -0.0876078 0.0816172 -0.0866429 -0.0830704 0.0704111 0.061857 -0.0545126 0.0421118 0.0276405 0.0144578 -0.00133501 0.0119125 0.0250463 0.0383281 0.0499694 0.0587752 -0.0668377 -0.0748887 0.0799447 -0.081244 -0.0815778 -0.0813323 0.0779598 -0.0714232 -0.0639954 0.0558266 0.0456131 0.0337289 -0.0213866 -0.00877487 -0.00411343 -0.0169051 0.0294531 0.0414009 0.0518874 -0.0608134 -0.0687906 -0.0753584 0.0793885 0.0811219 0.0815133 -0.080173 -0.0762237 -0.0701392 0.0628382 -0.0541693 0.0437891 -0.0322056 0.0200427 -0.00745395 0.00535832 0.0180492 -0.0304004 -0.0420185 -0.0523543 0.0613475 0.069162 0.0753283 -0.0792428 -0.0811385 -0.0814418 0.0797973 0.075806 -0.0698972 -0.0625918 -0.0537866 -0.0434217 0.0319605 -0.0198523 0.00727832 -0.00550334 0.0181616 0.0304421 -0.0419616 0.0522894 -0.0613398 -0.0691075 -0.0751658 -0.0791098 -0.0811209 0.0814204 -0.0797082 -0.0757719 0.0699865 0.062713 -0.0538923 -0.0435782 -0.0321987 -0.0201314 -0.00757526 0.00519037 0.0178402 -0.0301012 0.0416008 -0.0519628 -0.0610801 0.0688675 0.0749278 -0.0789482 -0.0810742 0.0814284 -0.0797442 0.0758975 0.0702292 0.0630209 -0.0542382 -0.0439894 -0.0326821 0.0206577 0.00812364 -0.00463101 0.017283 -0.0295493 -0.0410635 0.0514778 0.0606725 -0.0685189 0.0746338 -0.0787528 -0.0810026 0.0814503 0.0798433 -0.0761047 -0.0705587 -0.0634417 0.054727 0.0445529 0.0333182 -0.0213428 -0.00883554 0.00390921 0.0165686 -0.0288536 -0.0403999 -0.0508759 0.0601576 0.0680896 -0.0742896 0.0785207 0.0809056 0.0814769 -0.0799783 0.0763603 0.0709464 0.0639437 0.0553188 -0.0452271 -0.0340698 -0.0221521 0.00967763 -0.00305604 -0.0157249 0.0280368 -0.0396255 0.0501684 -0.059546 0.0675857 -0.0738922 0.078245 -0.0807783 -0.0815014 -0.0801364 -0.0766495 0.071381 0.0645174 0.0560022 -0.0460011 -0.0349296 -0.0230821 -0.0106487 -0.00207072 0.0147492 0.0270935 0.0387307 0.0493431 0.0588264 -0.0669967 0.0734288 0.0779104 0.0806092 -0.0815181 0.0803123 -0.0769663 -0.0718619 -0.0651708 -0.0567892 0.046888 -0.0359157 -0.024158 -0.0117789 -0.000920106 -0.0136062 0.0259871 -0.0376764 -0.0483572 -0.0579582 -0.0662902 -0.0728696 0.0774846 0.0803724 0.0815182 -0.0805065 -0.0773105 -0.0723982 0.065934 0.057723 -0.0479335 -0.0370827 0.0254506 0.0131504 -0.000483769 0.0122035 -0.0246243 -0.0363668 -0.0471067 -0.0568402 -0.0653868 0.0721475 -0.076892 -0.0800032 -0.0814808 -0.0807262 -0.0776846 0.0730085 0.0668805 -0.0589148 -0.0492523 -0.0385616 0.0271337 0.0149699 -0.00236317 0.0103065 0.022768 -0.034559 -0.0453198 -0.0551957 -0.0640708 0.0710896 0.0759227 0.0792943 -0.081328 -0.0809959 -0.0780826 -0.0736965 -0.0681837 0.0606847 0.0511651 0.0406951 -0.0296948 -0.0178584 -0.00539978 -0.00718016 -0.0196601 -0.0314804 0.0420867 -0.0519881 0.0615008 0.069108 0.073801 -0.0772153 -0.080485 0.0814049 -0.0784635 -0.0740274 -0.0700452 0.0643228 0.0551008 -0.0445646 -0.0348186 0.0246355 0.0130182 -0.00100104 -0.0109489 0.0228174 0.0325303 0.0396313 0.0479682 -0.0596711 -0.0673691 0.0651201 0.0592889 0.0607354 -0.0725772 0.0820502 0.0695317 0.0364409 0.0925769 -0.0925662 0.0559136 0.0559138 
-6.80492e-05 -0.000185283 0.000479619 -0.00149099 -0.00672414 0.039373 -0.0656668 0.06903 -0.0772591 -0.0932691 -0.08868 0.0808603 -0.0837612 -0.0781997 0.0636894 0.0526497 -0.0426653 0.0286292 0.0129542 -0.00197759 0.0163607 0.0295108 0.0420822 0.054899 0.0652868 0.0717264 -0.0769773 -0.0819796 0.0834624 -0.0807222 -0.0767231 -0.0719426 0.0641819 -0.0535781 -0.0421092 0.0300511 0.016825 0.00289297 0.0110944 0.0247845 -0.0374581 -0.0488146 0.0592918 0.068425 0.0749356 -0.0789157 -0.0813894 -0.0819422 0.0794701 0.0744145 0.0678703 -0.0596741 -0.0493433 -0.0374477 0.0247746 -0.0115051 -0.00215705 0.0157773 -0.0290557 0.0415414 0.052592 0.062092 -0.070218 -0.0764559 -0.0801106 0.0814219 0.0808925 0.0781793 -0.0728695 -0.065445 -0.0565145 0.0460565 0.0340915 -0.0211368 -0.00769038 0.00594698 0.0193897 -0.0322971 0.0444344 -0.0553234 -0.0644389 0.0717488 0.0773329 -0.0807556 0.0816147 -0.0801898 -0.0768186 -0.0713023 -0.0635412 -0.0540032 0.043145 -0.0310875 -0.0180579 0.00451657 -0.00913269 0.0225108 0.0351905 0.0469076 0.0574562 0.0663725 0.0732398 0.0780946 -0.0809963 0.0816038 -0.0797039 -0.075613 0.0696238 0.061666 -0.0518211 -0.0405493 0.0282574 -0.0151731 0.00162486 -0.0119767 -0.0252712 0.0378366 0.049255 0.0593367 -0.0679074 -0.0745378 -0.0789132 0.0811422 -0.0813018 -0.0791431 0.0745953 0.0680169 -0.0597018 0.049688 -0.0381764 -0.0256222 0.0124152 -0.00113775 0.0146589 0.0277906 0.0402053 -0.0514611 -0.0611758 -0.0692412 0.0755244 0.0796397 0.0813711 0.0809062 -0.0783592 -0.0735661 -0.0665722 0.0577799 0.0475017 -0.0358658 0.0231561 0.00981644 -0.00377208 0.0172436 -0.0302035 -0.0423588 -0.0534177 -0.0629317 0.0705708 0.0763216 0.0801016 -0.0815698 -0.0806064 -0.0774852 0.0723665 -0.0651614 0.0560121 -0.0453621 0.0335462 -0.0207677 0.00736674 0.00623755 0.0196761 0.0325362 0.0444294 -0.0551478 -0.0644423 -0.0718607 0.0771372 0.0803709 0.0815369 0.0803314 -0.0767269 0.0710913 0.0636332 0.0543261 0.0433923 0.0313083 -0.0184275 0.00501763 -0.00854662 -0.0218939 0.0346756 -0.0464327 0.0568014 0.0656886 0.0728978 0.0779613 -0.0806838 0.0813037 0.0798588 0.0760631 -0.0699748 -0.0620658 0.0525916 -0.0415712 -0.0292907 -0.0162455 -0.00279911 0.0107184 -0.023916 -0.0365079 -0.0481788 0.0584036 0.0668535 0.0736023 -0.0785183 -0.0810795 0.0811594 0.0791819 -0.075255 -0.0690685 0.0607519 0.050901 -0.0398159 -0.0275395 -0.0144033 -0.000897153 0.0126194 -0.0257337 0.0380481 0.0494356 0.059639 0.0679975 0.0742083 -0.0786177 -0.0811903 0.0812468 0.0786994 0.0742592 -0.0681326 -0.0598902 0.0496943 0.0383122 0.0260967 -0.0130844 0.000366701 0.013827 0.026976 -0.039231 -0.0501534 -0.0599539 0.0685317 0.0748709 0.0785808 0.0805571 0.0810214 -0.0788362 -0.0737692 -0.0671027 0.0593191 0.04961 0.0379976 -0.0255633 -0.0127884 0.000341337 -0.0134376 0.0262861 -0.0388361 -0.0500135 -0.0589094 0.0666035 0.0739423 -0.0788504 0.0797565 0.0788935 0.0782453 -0.0753659 -0.0681265 0.059048 0.0508148 -0.0417036 -0.0298952 0.0169681 -0.00456792 -0.00763916 -0.0188164 -0.0282746 -0.0384298 0.0511361 0.0601547 -0.0599963 -0.0561756 -0.0588806 0.0714944 -0.0815866 -0.0695364 -0.0366088 -0.0958871 0.095876 -0.0592232 -0.0592234 
-7.54891e-05 -0.000204668 0.000525972 -0.00161815 -0.00720003 0.0416238 -0.0690973 0.0721825 -0.0796181 -0.0949506 -0.0889866 0.0791795 -0.0796915 -0.07202 0.0557012 0.042205 -0.029668 0.0142733 -0.00218075 -0.0183359 0.0333485 0.0456992 0.0568966 0.0682888 0.0764874 0.0797662 -0.0813956 -0.0824895 0.0797822 -0.0727311 -0.0642573 -0.0549299 0.0431664 -0.0293086 -0.0148587 0.000220507 -0.0143621 -0.0283785 0.0418133 0.0542005 -0.0642241 -0.0717224 0.0776595 0.0815863 0.0821087 -0.0795445 -0.075167 -0.0687657 0.0595902 0.048246 0.0357595 -0.0223017 -0.00797802 0.0066521 -0.0211169 0.0349253 -0.0473722 0.0582269 -0.067614 0.0749645 0.0794664 0.0813196 -0.0810786 -0.0783848 -0.0727666 0.064745 0.0550259 0.0436403 -0.0306526 -0.0166511 -0.00220881 -0.0122771 -0.0263137 0.039519 0.051652 0.0621585 0.070429 -0.076457 0.0803909 -0.0818025 -0.0803011 0.0762477 0.0700872 -0.0617303 0.0511939 -0.0390302 -0.0257811 -0.0117337 0.00272495 0.0171106 -0.0310116 0.0439154 0.0552901 -0.064942 -0.072754 0.0782483 0.0810334 0.0812901 0.0792335 0.0746581 0.0675103 0.0582548 -0.0473357 0.0349176 -0.0213009 -0.00701277 -0.00747299 -0.0217078 0.0352027 0.0476156 -0.0586523 0.0678045 -0.0746502 -0.0791912 -0.0814397 0.0810791 0.0779676 0.0724468 -0.0648253 -0.0551315 -0.0435709 0.0306604 -0.0168614 -0.00253122 -0.0118867 -0.0259473 0.0392475 -0.0512775 0.0615828 0.070002 -0.0763738 -0.0802853 0.0814989 0.0802131 0.0765806 -0.0704853 -0.0620236 -0.0516574 0.0397807 0.0266298 0.0125841 -0.00185422 0.0162338 0.0300806 0.0429235 -0.0544623 -0.0643988 0.0722498 -0.0776866 -0.0807573 -0.081455 0.0795194 -0.0749266 -0.0680501 -0.0591763 -0.0483931 0.0359916 0.0224895 0.00833101 0.00608859 0.0203084 0.0339193 -0.046529 0.0576214 -0.0667936 0.0739474 -0.0789267 0.081339 -0.0810375 0.0782859 0.0732372 0.0658094 0.0561827 -0.0448562 -0.0322182 -0.0185387 0.00423639 -0.0102011 -0.024334 -0.0376634 0.049738 -0.0603255 -0.069144 -0.0756956 -0.0797173 -0.0813538 0.080614 -0.0772335 -0.0712654 -0.063166 0.0532297 -0.0415528 0.0284784 0.0145489 0.000203198 -0.0141384 0.0280096 -0.0410584 -0.0529108 -0.0630077 0.0709862 0.0768724 -0.0805363 0.0815313 0.0797736 0.0756683 0.0693904 0.0608135 -0.0501735 -0.0380577 -0.0248611 0.0108483 -0.00353888 -0.0178331 0.031611 0.0443171 -0.0555145 -0.0651142 0.07287 0.0781672 -0.0807823 -0.0810791 0.079108 0.0744658 0.067248 0.0581081 0.0473677 -0.0350314 0.0214698 0.00728982 -0.00707659 -0.0211798 -0.0345442 0.046957 0.0580955 -0.0672136 -0.0739451 -0.0786439 0.081266 0.0810601 -0.0779303 -0.0726776 -0.0655651 0.05617 0.0447099 0.0320389 0.0185888 -0.00451481 0.00973188 0.0237438 -0.0371727 -0.0492317 -0.0593916 -0.0680423 -0.0751627 0.0795404 0.0807355 0.0799062 -0.0774503 -0.0721793 -0.0638866 0.0540098 0.0431922 0.0308496 -0.0171508 0.00300813 0.0111516 0.0248062 0.0372234 -0.0487665 -0.0598662 0.0687512 -0.0738992 -0.0771622 -0.0803557 0.0809473 0.0765664 -0.0698626 -0.0639074 0.0565773 0.0453262 -0.0321875 0.0199026 -0.00781542 0.00448449 0.0160837 0.0278874 -0.041417 -0.0516915 0.0537608 0.0521548 0.0562081 -0.069546 0.0802274 0.0688282 0.036423 0.0986989 -0.0986877 0.062454 0.0624542 
-8.36127e-05 -0.000225699 0.000575687 -0.001752 -0.00768634 0.0438372 -0.0724096 0.0751362 -0.0815772 -0.0959902 -0.0885249 0.076594 -0.0744915 -0.0646348 0.0466052 0.0307684 -0.0158712 -0.000517941 -0.0172402 -0.0339789 0.0488931 0.0597041 0.0687075 0.0777216 0.0828649 0.0823441 -0.0797643 -0.0763774 0.0692216 -0.0580101 -0.0454169 -0.032097 0.0172832 -0.00152485 0.0142845 -0.0296399 -0.0435014 -0.0553776 0.0658912 0.0745555 -0.0797104 -0.081404 0.0810027 0.0782184 0.071887 -0.0625607 -0.0515624 -0.0390064 0.0247422 0.00946006 -0.00608163 0.0213767 0.0357293 0.0487254 -0.0603362 0.0699227 -0.0765332 0.0802553 -0.0816452 0.0802862 0.0755779 0.0680477 -0.0585035 -0.0469852 -0.0335402 0.0188443 0.00358442 -0.0117701 0.0266421 0.0405646 0.0532451 -0.0640551 -0.0722924 0.0779343 0.0811668 0.081558 0.0787084 -0.0730395 0.0650922 -0.05487 -0.0424871 0.0285804 0.0137774 0.00149259 -0.0167036 0.0313374 0.0449731 0.057002 0.066817 0.0742845 -0.0793776 0.0816498 0.0807695 -0.0770503 -0.0708571 0.0621513 0.0510579 0.0381669 0.0240473 0.00908457 -0.00622659 -0.0213315 0.0357408 -0.0488621 0.0601242 0.0692977 -0.0762135 -0.0804006 0.0815379 0.0798385 -0.0755325 0.0685282 -0.0589314 -0.0472814 -0.034086 0.0196802 0.00453024 -0.0107862 0.0257445 0.0397687 0.0522991 -0.0630263 0.0716766 0.0777488 -0.0809041 -0.081264 0.0789445 -0.0737914 0.0658735 0.0556767 -0.0436441 -0.0300508 0.0153314 7.51718e-05 -0.0151792 0.0298774 0.0434629 0.0555592 -0.0658127 -0.0736896 -0.0788204 -0.0812435 0.0809737 0.0777856 0.0716996 -0.0631482 -0.0525053 0.039975 -0.0259544 -0.0110364 0.00424319 -0.01936 0.0337602 0.0470118 0.058699 0.0682573 -0.0752809 -0.0797339 -0.0815391 0.080393 0.0762597 0.0695206 -0.0604767 0.0492478 -0.0361868 0.0218856 -0.00686332 -0.00839846 0.0233522 -0.0375189 -0.0504366 -0.0615148 -0.0703104 0.0767226 0.0805904 0.0815256 -0.0794309 -0.0746427 -0.067386 -0.0576803 0.0458268 -0.0324169 -0.0179411 -0.00282065 0.0124092 0.0272286 -0.0411431 0.0535448 0.0639553 0.0722191 -0.0781005 0.0811188 -0.0811117 -0.0783825 -0.0730789 -0.0650985 0.0546829 -0.0424318 -0.0287964 -0.0141128 -0.00110412 -0.0162935 0.0309426 -0.0444389 -0.0562722 -0.0662444 -0.0740555 -0.0791217 0.0812121 0.0806189 0.0774149 -0.0713423 -0.0625737 -0.0517403 0.0392471 0.0253056 -0.0103992 0.00485829 -0.0199496 -0.0342789 0.0473083 0.0588097 -0.0684347 -0.0754789 -0.0796347 -0.0812234 -0.0802552 0.07626 -0.0693217 -0.0601579 -0.0491311 -0.036256 -0.0219654 0.00696432 -0.00823579 0.0230963 0.0370554 0.049867 -0.0611625 -0.0700845 0.0762213 0.0800045 0.0814266 -0.0796892 -0.0747305 -0.0674844 -0.058317 0.0468926 0.0335328 0.0191472 -0.00425494 0.0107608 0.0253226 0.0391621 0.0519594 -0.0626416 -0.0705871 -0.0765101 0.0805756 0.081389 0.0784958 -0.0733776 -0.0666897 -0.0573501 0.045264 -0.0318912 0.0179742 0.00343285 -0.0112442 0.0256392 0.0396908 -0.0520738 0.0614169 0.0689786 0.076212 -0.0806626 -0.0798524 0.0763365 0.0733482 -0.0684738 -0.0585648 0.0459884 -0.0344437 0.0229873 0.00999479 -0.00341831 -0.0166163 0.0307389 0.0421552 -0.0465292 -0.0472916 -0.0527549 0.0667556 -0.0779874 -0.0674143 -0.0358853 -0.100998 0.100986 -0.0656016 -0.0656018 
-9.24936e-05 -0.000248547 0.000629081 -0.00189312 -0.00818377 0.0460111 -0.0755983 0.077883 -0.0831265 -0.096381 -0.0872989 0.0731333 -0.068235 -0.0561676 0.0365825 0.0186085 -0.00164666 -0.0152934 -0.0317025 -0.0482964 0.0623221 0.0708564 0.0768913 0.0826508 0.0840171 0.0792836 -0.0722046 -0.0641341 0.0526912 -0.0379213 -0.0220709 -0.00586318 -0.010549 0.0264418 0.0416081 -0.0555006 -0.0664382 -0.0740396 0.0795038 0.0824467 -0.0811973 -0.0760742 0.0686746 0.0590035 0.0464359 -0.0317246 -0.0160341 0.000159366 -0.0163205 -0.0317999 -0.0462679 0.0590106 0.0689481 0.0759546 -0.0804913 0.0820304 -0.0797577 0.0741368 -0.0660594 0.0555117 0.0424318 0.0275803 -0.0118024 0.00439225 0.0203817 -0.0355622 -0.0495231 -0.0615513 0.0708317 0.0772637 0.0810201 -0.0816295 -0.0786368 0.07249 0.0638101 0.0526563 0.0392012 -0.0241712 0.00829239 0.00788911 0.0237269 -0.0386407 -0.0521772 0.0636468 -0.0723731 0.0782538 0.0813331 0.0812046 0.0775978 0.0709393 -0.0617298 0.0500926 0.0363209 -0.0211154 -0.00515032 -0.0110025 -0.0266896 -0.0413463 -0.0544974 -0.0654763 -0.073691 -0.07904 0.0815059 -0.0807348 0.0765669 0.0694184 -0.0597323 -0.0476809 0.0336288 0.0182617 -0.00222871 -0.01388 0.0294104 0.043811 0.0565963 -0.0671182 -0.0748424 -0.0796753 0.0815697 0.0802119 0.0755164 -0.0678999 0.0577776 0.0453579 -0.0310528 -0.015541 -0.000541473 0.0165913 -0.031956 -0.0460979 0.0585279 0.0686114 -0.0758572 -0.080187 -0.081541 0.0796342 0.0744359 0.0663728 -0.0558476 -0.0430947 -0.0285603 -0.0129214 -0.00319298 -0.0191694 -0.0343585 0.0482378 0.0603193 -0.0699762 0.0767517 0.0805906 0.0814305 -0.0790041 0.073324 0.0648356 0.0539377 0.0408814 -0.0261396 -0.0103915 0.00573816 -0.0216273 -0.0366304 -0.0502436 0.0619829 -0.0712224 0.0775344 -0.0808956 0.081247 -0.0783275 0.0721854 -0.0632941 -0.0520533 -0.0387218 -0.0237937 0.00795434 -0.00817457 -0.0239633 0.0387702 0.0521152 0.0635209 0.0723528 -0.0782082 0.0811079 0.0809999 0.0776149 0.071031 0.0617619 -0.0502107 0.036633 0.0215404 0.00562811 0.0104849 -0.0261609 0.0407617 0.0538394 0.0649258 0.0733636 -0.078771 0.0812306 0.0807012 0.0768837 -0.0698807 -0.0602637 0.0484419 -0.0346512 -0.0194176 -0.00345176 0.0126312 0.0281828 -0.0425677 -0.055384 -0.0661768 0.0742421 0.0792125 0.081263 -0.0803687 -0.0761646 0.0687696 0.0588438 -0.0468058 -0.032846 0.0174994 0.00150187 0.0145373 0.0299541 0.0441113 0.0566798 0.0672278 -0.0749594 0.0795068 0.0811948 0.0800308 0.0755156 0.0677635 -0.0575841 -0.0454182 0.0313586 0.0159379 -6.26865e-05 0.0160443 0.0313159 -0.0452242 -0.0575672 -0.0679702 0.0754492 0.0795859 0.0809812 0.0797346 -0.0750616 -0.067001 -0.0566507 0.0445301 0.0305148 0.0150907 -0.000862678 -0.0167659 0.0318796 0.0454753 0.0576027 -0.0680895 -0.0755344 -0.0792459 0.0804112 0.079524 0.0751311 -0.0668445 0.0564162 -0.0447768 -0.0312524 -0.0160319 0.000269394 -0.0154716 0.0304139 -0.0434286 -0.0550268 -0.0661368 0.0745323 0.0777632 -0.0780676 -0.0785977 0.0767673 0.0689707 -0.0577626 0.0476113 -0.0373279 -0.0241457 -0.00934798 0.00491111 -0.0193491 -0.0317437 0.0384356 0.0416644 0.0485691 -0.0631569 0.0748913 0.0653093 0.035001 0.102772 -0.10276 0.0686619 0.0686621 
-0.000102212 -0.000273395 0.000686496 -0.00204206 -0.00869305 0.0481436 -0.0786578 0.0804153 -0.0842582 -0.0961203 -0.0853192 0.068837 -0.0610107 -0.0467602 0.0258322 0.00601131 0.0126223 -0.0296024 -0.0450668 -0.0607299 0.0730542 0.0786232 0.081016 0.0827908 0.0798713 0.0707943 -0.0592783 -0.0467423 0.0316167 -0.0143235 0.00346448 0.0209919 -0.0371916 0.0512379 0.0636314 -0.073872 -0.0799022 -0.0815549 0.0804892 0.0765549 -0.0684236 -0.0567157 0.0430602 0.0278346 0.0111474 0.00613583 0.0232021 0.0392867 -0.0532838 -0.0647434 -0.0738645 0.0799587 0.0819269 0.0800445 -0.075214 0.0672849 -0.0559528 0.0420173 -0.0265103 0.00992792 -0.00714045 -0.0239096 0.0397659 0.0539021 0.0653734 -0.073917 -0.0796133 -0.0818951 0.0801801 0.0748847 0.0666777 -0.0556161 -0.0418685 0.0262499 0.00960495 -0.00743004 -0.0241063 0.0397383 -0.0537944 0.0654971 0.0740809 -0.0794251 -0.0816054 0.0802312 -0.0750618 0.0666095 0.0554919 0.0419659 0.0264658 0.00980032 0.00725526 -0.0239753 -0.0395733 0.0534664 0.0651946 -0.0740557 -0.0794651 -0.0814381 -0.0801059 -0.0752616 -0.0669219 -0.0556847 0.0421833 -0.0268415 0.0102559 -0.00678339 0.0235413 0.0392502 -0.0531497 -0.0647702 0.0737361 -0.0794503 0.0815088 0.0800647 0.075336 -0.0672932 -0.0561597 -0.0426084 0.0273092 0.0108176 -0.00617209 0.0229073 -0.0386946 -0.0527641 0.0644229 0.0733297 -0.07921 0.0815903 -0.0802458 -0.0754683 0.067576 0.0567044 -0.0432457 -0.0279319 -0.0114679 -0.00549215 -0.0222053 -0.0379797 0.0521785 0.0640608 0.0730314 0.0788935 -0.0814879 -0.0804746 -0.075804 0.0679029 0.0571919 -0.0439548 0.028719 0.0122537 -0.00471416 0.0214627 -0.0372409 -0.051445 -0.0635127 -0.0727563 0.0787018 0.0813106 0.080549 -0.0762128 -0.0684196 -0.0577228 0.0446378 -0.029578 0.0131736 0.00379679 -0.020604 0.0364848 -0.0507155 0.0628099 0.0722996 0.0785657 0.0812712 -0.0805484 -0.0764932 -0.0690327 0.0584394 0.0453785 0.0304467 0.0141667 0.00276072 -0.0195809 -0.0355857 -0.0499907 -0.0621303 -0.0716685 0.078247 -0.0813219 -0.0807029 -0.0767031 0.0695469 -0.059281 0.0463159 0.0314079 0.0152161 -0.0016462 0.018439 -0.034473 -0.0490854 -0.0614806 0.071076 0.0777229 -0.0811877 0.0809936 0.077099 0.0700074 0.0600656 0.0474215 -0.0326015 -0.0164258 0.000407374 -0.0172065 -0.0332221 -0.0478824 0.0605968 0.070549 -0.0772563 -0.0808056 0.0811014 0.0777056 -0.0707167 -0.0608419 0.048542 0.0340394 0.0179505 0.00112143 -0.0157385 0.0318549 -0.0464907 -0.0592692 -0.0697059 -0.0769171 -0.0805167 0.0809053 0.0781478 -0.0717778 -0.0620049 -0.0497681 0.0356359 0.0198715 -0.00315054 0.013713 0.0300408 -0.0449271 -0.0576411 -0.0681396 -0.0761167 0.0804864 0.0808949 0.0782139 -0.0727437 -0.063837 -0.0517231 -0.0376442 -0.0222964 0.00593763 -0.0107234 -0.0270174 0.0424111 0.0556993 0.0660044 -0.0739282 -0.0796428 -0.0814891 0.0787777 -0.0732316 0.0657918 0.0552522 0.0414589 -0.0261488 -0.0103239 -0.00584388 0.0215469 0.0364735 0.0509143 -0.0630007 -0.0704396 0.0749481 0.079356 -0.0810212 -0.0760405 0.0669915 -0.0588804 0.0503183 0.0375035 0.0218385 0.00692239 0.0075112 0.0206733 -0.0296298 -0.0353641 -0.0437087 0.0587936 -0.0709731 -0.0625346 -0.0337785 -0.104012 0.104 -0.0716307 -0.071631 
-0.000112856 -0.000300444 0.000748298 -0.00219947 -0.00921491 0.0502327 -0.0815829 0.0827261 -0.0849665 -0.0952098 -0.0826028 0.0637542 -0.0529211 -0.0365701 0.0145682 -0.00672719 0.026551 -0.0430084 -0.0568703 -0.0707944 0.0806251 0.0826335 0.0808638 0.0781334 0.0706891 0.0574575 -0.0419463 -0.0255983 0.0078155 0.0105996 0.0286562 0.0456228 -0.0596402 0.0698902 0.0775488 -0.0822749 -0.0819737 -0.0767922 0.0686908 0.057865 -0.0436327 -0.0268985 0.00911511 -0.00897352 -0.0265027 0.0426377 0.0570728 0.06894 -0.0768632 -0.0807551 -0.0813622 0.0782977 0.0708556 0.0597491 -0.0461717 0.0305132 -0.013186 -0.00483835 0.0226555 -0.0393774 -0.0539485 -0.065844 0.0749352 0.0804932 0.081722 -0.078908 -0.0727009 -0.0630717 0.0500888 0.0346309 0.0176736 9.47071e-05 0.0178542 -0.0347631 -0.0501468 -0.0631161 -0.0727781 0.0789195 -0.0815833 0.0803398 0.0749166 -0.0658694 -0.0539063 0.0393718 -0.0228013 0.00511832 -0.012788 -0.0300588 -0.0457825 -0.0593229 0.0702065 -0.0776967 -0.0812061 0.0808321 0.0768289 -0.0691234 -0.0578896 -0.0438832 -0.0279034 -0.0105907 0.0072618 0.0247812 -0.0411763 0.055566 -0.0671397 -0.0755271 0.0804911 0.0815553 -0.0784959 -0.0717057 0.0616618 -0.048639 0.0331613 0.0161007 -0.00168783 0.019381 0.0361011 0.0511211 -0.0638076 -0.0733897 -0.0792864 0.0814348 -0.0798662 -0.0744222 0.065245 0.0529786 -0.0382947 0.0217609 -0.00413474 0.0136965 -0.0308963 -0.0465834 0.0599435 0.0704835 0.0777934 -0.081316 -0.0807773 -0.0764321 0.068586 0.0574081 0.0433632 0.0272697 -0.00993067 0.00788101 0.0253033 -0.0415447 -0.0558757 0.0674763 -0.0757173 -0.0804055 -0.0814032 0.0784329 -0.0715562 -0.061318 -0.0482694 -0.0328746 0.0158399 -0.00194577 -0.0196365 0.0363581 0.0512745 0.0637976 -0.0733895 0.0793911 -0.0814445 0.0796902 -0.0742814 0.065245 -0.0529606 0.0381966 0.0216866 0.00412596 -0.0136445 0.0307876 0.0465138 0.0599525 -0.0704113 -0.0775965 -0.0812265 -0.0808728 0.0764931 -0.0685546 -0.057484 -0.0435999 -0.0275403 -0.0101939 -0.00761083 0.0250295 0.0412059 0.0554822 -0.0672215 0.0756456 -0.0802987 -0.0812426 -0.0784866 -0.0718659 0.0616543 -0.0485933 -0.0333306 -0.016435 -0.00128812 -0.0189625 0.035768 -0.0507917 -0.0632766 -0.0728669 -0.0791579 -0.0815227 0.0797973 0.0744224 0.0656977 -0.0537198 -0.0390353 -0.0225626 0.00508789 -0.0126227 0.0297034 0.0454486 -0.0591531 -0.0698911 0.0770963 0.0808253 -0.0809617 -0.0770454 -0.0692128 -0.0582646 -0.0447549 0.0290147 -0.0117867 0.00598262 0.0234747 0.0397579 0.0540058 -0.0658722 -0.0748744 0.08007 0.0811255 0.0786131 -0.0727414 -0.0631786 0.0503146 0.0352428 0.0187049 -0.00124506 0.0162857 0.0331362 0.0485994 -0.0615232 -0.0711554 -0.0777695 0.0812539 0.0805209 0.0753971 0.067097 0.0562136 -0.0424409 -0.0263016 -0.00904534 -0.00851556 -0.0255547 -0.0411092 0.0550185 0.0670273 0.0754575 -0.0793414 0.0800394 -0.078303 -0.0724991 -0.0621042 0.0491916 0.0350675 -0.0192853 0.00226655 -0.0148703 -0.0317291 0.0469034 0.0583744 -0.0671721 -0.0755797 0.0810117 0.0794323 -0.0732681 0.0678015 -0.0614889 -0.0496292 -0.0336846 -0.018575 0.00450062 -0.0091736 0.0202751 0.0284926 0.0382413 -0.0537185 0.0662758 0.0591188 0.0322297 0.104711 -0.1047 0.0745042 0.0745044 
-0.000124522 -0.00032991 0.000814883 -0.00236598 -0.0097501 0.0522767 -0.0843686 0.084809 -0.0852481 -0.0936557 -0.0791732 0.0579429 -0.0440808 -0.0257678 0.00301457 -0.0193076 0.0397642 -0.0551026 -0.066704 -0.0780972 0.0847071 0.0826957 0.0764429 0.0689486 0.0570493 0.0401864 -0.0214966 -0.00239928 -0.0166597 0.0345419 0.0510052 0.0654195 -0.0753634 0.0801621 0.0815876 -0.0795754 -0.0723573 -0.0604684 0.0459825 0.0295015 -0.0111786 0.00787905 -0.0265935 -0.0439637 -0.0585382 0.0696988 0.0777456 0.0819685 -0.0811358 -0.0756475 -0.0667208 0.0544971 0.0389844 0.0212514 -0.00254069 -0.0162472 0.0340495 -0.0499971 0.0636029 -0.0739217 -0.0798721 -0.0814636 0.0792023 0.0728592 0.0622644 -0.0482824 -0.0319987 -0.0140837 -0.00464056 -0.0231384 -0.0405179 0.055755 0.0677883 -0.0762121 -0.0809402 -0.0814228 -0.0772638 0.068991 -0.0573567 0.0427258 0.0256752 -0.00724798 0.0115297 -0.029677 0.0461509 -0.0602031 -0.071288 -0.0786 -0.0815023 -0.0801161 0.074771 -0.0654814 -0.0525329 0.0368149 0.0192754 -0.000733645 0.0178499 0.0355119 0.0514031 0.0645575 0.0741302 0.0798313 -0.0815501 0.0789447 -0.0719706 -0.0612321 0.0474361 0.031135 -0.0131137 0.00560354 -0.0240352 0.0411765 -0.056052 -0.0680167 -0.0765662 0.0810419 0.0810637 0.0768674 -0.0688102 -0.0571014 -0.0422578 0.025209 -0.00689656 0.0117699 -0.0297944 -0.0462821 0.0604344 -0.0713614 0.0783862 0.0813487 -0.0802094 -0.0748007 0.065304 0.0524177 0.0368904 -0.0194081 -0.00086335 0.0177359 -0.0354346 -0.0512338 -0.064242 -0.0739339 0.0798886 0.0815801 0.0788266 -0.071998 -0.0615333 0.0477925 -0.0314464 -0.0134683 0.00518496 -0.0235502 0.0406377 0.0556376 0.0678206 0.0763742 -0.0807748 -0.0810154 -0.0771608 0.0691853 0.0574452 0.0427424 -0.0258842 0.00765217 0.0110003 -0.0290965 0.0457165 -0.05988 0.0707913 -0.0780725 -0.0814082 -0.0803825 -0.0749858 0.0657403 0.05318 0.0377774 -0.0203164 -0.00180576 0.0167888 0.034471 -0.0502827 0.063531 0.0735726 0.0796572 0.0814083 0.0790033 -0.0726229 0.0623432 0.0486654 0.0324997 -0.0147074 -0.00386391 0.0222303 0.0394758 0.0547322 0.0670283 -0.0756718 0.0804786 0.0812516 0.0776397 -0.0697862 -0.0583936 0.0440883 -0.0274117 -0.00923021 0.00942871 0.0276072 0.0442755 -0.0585239 -0.0698339 -0.0776662 0.0812783 0.0804295 0.0755425 -0.0669176 -0.0546632 0.0393956 0.0221469 -0.00381793 0.0146996 -0.0324129 -0.0485252 0.0622452 0.0725476 0.0788351 0.0812203 0.0796435 -0.0737031 0.0636597 0.0504696 0.0348485 0.017333 -0.00115886 0.0196113 0.0371061 -0.0525237 -0.0649904 -0.0743095 0.0800965 0.0814313 -0.0781452 -0.0710872 -0.0607158 0.0469835 0.0305538 0.0126445 -0.00582256 0.023918 0.040628 0.0554426 -0.0677555 -0.0762179 -0.0801812 -0.0804117 -0.077159 0.0695515 0.0577511 0.0432742 -0.0270299 -0.00931968 0.00895582 -0.0268605 -0.0436944 -0.0579532 0.0684543 -0.0759094 0.0806932 0.080885 0.0755866 -0.066898 -0.0562384 0.0425692 -0.0258768 -0.00797638 0.0100745 -0.0274072 -0.0423798 0.0552225 0.0674846 -0.0767394 -0.0789821 0.076316 -0.074019 0.0704355 0.0601245 0.044537 0.0297424 -0.0164082 -0.0025165 -0.0105446 -0.0211609 -0.0322428 0.047993 -0.0608509 -0.0550969 -0.0303695 -0.104866 0.104855 -0.0772784 -0.0772787 
-0.000137316 -0.000362031 0.000886676 -0.00254228 -0.0102994 0.0542736 -0.0870101 0.0866584 -0.0851014 -0.0914685 -0.0750601 0.0514696 -0.0346154 -0.0145342 -0.00859906 -0.0314342 0.0519057 -0.065516 -0.0742275 -0.0823534 0.0851237 0.0788067 0.0679866 0.0557686 0.0398121 0.0201635 0.000550736 0.0209923 -0.0396981 0.055288 0.0682942 0.0782845 -0.0825882 0.0808221 0.0752332 -0.0661379 -0.0524241 -0.0350411 0.015971 -0.00379387 0.0232387 0.0412036 -0.0571571 -0.0700468 -0.0781724 0.0813272 0.0804398 0.0752303 -0.0650286 -0.0507564 -0.0339244 0.015287 -0.00433089 -0.0237206 0.0418931 -0.057689 0.0697459 -0.0776211 0.0814782 -0.0807555 -0.0748757 -0.0645261 0.0508074 0.0342461 0.0155259 0.0041364 0.0235758 0.0416399 -0.0570873 -0.0692048 -0.0776467 0.0816437 0.0805575 -0.0747707 -0.064993 -0.0515086 -0.03484 0.016131 0.00343902 -0.0227853 -0.0407284 0.0563323 0.0688943 -0.0774777 0.0813183 -0.0804719 -0.0752689 -0.0657347 -0.052194 -0.0356393 0.0171526 0.00230431 0.0216218 -0.0397135 -0.0556364 0.0683296 0.0768883 0.0810484 0.0807791 0.0758391 0.0663227 0.053006 -0.0367901 0.0184591 0.00098445 0.0203849 -0.0386618 -0.0546846 0.0674258 0.0763294 -0.0810347 0.0810406 -0.0761906 -0.066997 -0.0541172 0.0381093 0.01982 0.000391842 0.0190528 0.0373783 0.0534744 -0.0665399 0.0759293 0.0809054 -0.0810582 -0.0766074 0.0679253 -0.0553049 0.0393892 0.0212295 -0.00190097 0.0175254 -0.0359127 -0.0522737 -0.0657378 0.0753729 0.0805308 0.0811296 -0.0772367 -0.0688555 -0.0563846 -0.040716 0.0227967 0.00356246 -0.0158869 0.0344479 0.0510947 -0.0647581 0.0745845 0.080202 0.0813733 -0.0778061 0.0696271 0.0575138 0.0422167 0.0244696 -0.00526901 0.0142382 0.0329502 -0.0497306 -0.0635696 -0.073834 0.0800038 -0.0815045 0.0781794 -0.0704528 0.0588259 -0.0437735 0.0261258 -0.00700046 0.0125058 0.0312699 0.0481872 -0.0624072 -0.0731682 -0.0796471 0.0814113 0.0786105 0.0714633 0.0601416 -0.0452546 0.0278253 0.00886533 -0.0106011 -0.0294449 -0.0466518 0.0612764 -0.0723014 -0.0790431 -0.0813751 0.0792198 -0.0724202 0.0613221 0.0468001 0.0297085 0.010885 0.00859076 -0.0275996 -0.0450824 -0.0599017 0.0711654 0.0784856 -0.0814974 0.0797092 0.0731767 0.0625882 0.048581 0.0317215 -0.0129653 0.00651883 0.0256358 -0.0432213 -0.0582323 -0.0700472 0.0780454 0.0814173 -0.0799181 -0.0740327 0.0641412 0.0504563 -0.0337386 -0.0151643 -0.00421401 -0.0233193 -0.0410284 -0.0565189 -0.0689671 0.0772883 -0.0809423 -0.0802169 -0.0752209 -0.0657345 -0.0522532 0.0359466 0.0177572 0.0014684 0.0206115 0.0386719 -0.054693 -0.0673912 0.0759483 0.0804849 0.0808657 -0.0763556 -0.0671044 -0.0543126 -0.0387825 0.0209346 0.00176884 -0.0175153 0.0359047 0.0520495 0.064877 0.0743861 0.0802992 -0.0812697 -0.0769583 -0.06873 0.0573383 0.0424691 0.0247788 -0.00581255 0.0133751 0.0316377 -0.0476876 0.0614058 -0.0726536 -0.0793851 -0.0803511 0.0773472 0.0716796 -0.06178 0.0471671 0.0301561 0.0123642 0.00592475 0.0235325 -0.0398418 -0.0555333 0.068429 0.0747115 -0.0760008 0.077285 -0.0768347 -0.0686447 -0.0540753 -0.0401326 0.0279359 0.0141544 0.000618855 0.0134873 0.0257966 -0.0416865 0.054758 0.0505101 0.0282159 0.104476 -0.104466 0.0799498 0.0799501 
-0.000151354 -0.000397066 0.000964135 -0.00272911 -0.0108636 0.0562217 -0.089503 0.0882692 -0.0845272 -0.088663 -0.0702989 0.0444082 -0.024659 -0.00305735 -0.0200417 -0.0428219 0.0626483 -0.073931 -0.0791801 -0.0833971 0.0818567 0.0711523 0.0559412 0.039357 0.0200644 -0.00123996 0.0225572 0.0426987 -0.059313 0.0709182 0.0788083 0.0828547 -0.0804998 0.071791 0.059295 -0.0437756 -0.0250162 -0.00433832 -0.0165772 -0.036455 0.0535747 0.0669299 -0.0766627 -0.0819386 -0.0812456 0.0749481 0.0645325 0.0503503 -0.0325873 -0.0125913 0.008103 -0.0282457 -0.0463748 -0.0614661 0.0730901 -0.0802458 0.0818059 -0.078022 0.069797 -0.0573171 -0.0408936 -0.0218006 0.00146024 -0.0189282 -0.0380153 0.0546881 0.0681928 0.0774489 -0.0814535 -0.0802692 -0.0744116 0.063937 0.049161 -0.03125 -0.0115142 0.00891064 0.0287363 -0.0467669 0.0620422 -0.0734191 -0.0799077 0.0813718 0.0780299 -0.069806 0.0569564 -0.04052 -0.0216864 -0.00151398 0.0187583 0.0378726 -0.0547306 0.0681345 0.077057 -0.0811709 -0.0804452 0.0746641 0.0639866 0.0493096 0.0316901 0.0120933 -0.00829584 -0.0281826 0.0463768 -0.061636 0.0728755 0.0795897 -0.0815282 -0.0783299 0.0700321 0.0573783 -0.0412807 0.022594 -0.0024371 0.0178835 0.037123 -0.0540075 -0.067391 -0.0766048 0.0812023 0.0806743 0.0749211 -0.0645245 0.0502404 0.0327956 -0.0132269 0.00717116 -0.0271311 0.0453648 -0.0606708 -0.0722341 0.0794321 0.0816088 -0.0785192 -0.0705774 -0.0583731 0.0424885 0.0238616 0.00375204 0.0165787 0.035849 0.0528133 0.066529 -0.0762171 -0.0810803 -0.0807244 0.0753935 0.0655032 -0.0514755 0.0341329 0.0146799 -0.0056556 0.0256211 -0.0439429 -0.0595702 -0.0715882 -0.0790671 0.0814643 0.078855 0.0714754 -0.0595731 -0.0438393 -0.0254053 0.00544045 0.0148573 -0.0342051 0.0514636 -0.0656039 0.0755761 -0.0806948 0.0808697 0.0761557 0.066613 0.0527879 -0.0357238 -0.0165073 0.00374532 -0.0237625 -0.0423364 -0.0583469 -0.0706407 0.0783975 -0.0813696 -0.079431 -0.0724439 -0.0607971 -0.0454357 0.0273419 -0.00752051 0.0127904 0.032333 -0.0499204 0.0643165 -0.0745772 -0.0803087 -0.0812088 -0.0769312 0.0676971 -0.0543488 -0.0377442 -0.0187433 -0.00147212 -0.0216101 0.0404428 -0.0566762 -0.0692571 -0.0776594 -0.0814141 -0.0799559 0.0733298 0.0622782 0.0475192 -0.0297281 -0.0100062 0.0103303 -0.03004 -0.0478021 0.0624701 0.0734041 -0.0799825 -0.0814094 0.077544 0.0690445 -0.0564788 -0.0402869 -0.021462 -0.0013457 0.0188338 -0.0377708 0.0542437 0.0675192 0.0768463 0.0811814 0.0801839 -0.0744634 -0.0644396 0.0502442 0.0327248 0.0132725 0.00692075 0.0266262 -0.044568 -0.0599396 -0.0718997 0.0791298 0.0810578 0.0783161 0.0712104 -0.0594438 -0.0436489 -0.0253403 0.00567125 -0.0143151 -0.0333187 -0.0504692 -0.0649095 0.0750022 0.0798515 0.0802518 -0.0765374 -0.067758 -0.0541385 0.0375085 0.0190828 -0.000512004 0.0200384 -0.0385109 0.0552232 0.0681826 0.0758482 -0.0794057 -0.079818 0.0750795 -0.0642289 -0.0498141 -0.0338406 0.0159871 -0.00310114 0.0219857 0.0404087 -0.0565179 -0.0668272 0.0723364 -0.0774691 0.080455 0.0749098 0.0620182 0.0494744 -0.0388167 -0.0254984 0.0093184 -0.00559578 -0.018992 0.0348752 -0.048064 -0.0454054 -0.0257897 -0.103544 0.103533 -0.0825147 -0.082515 
-0.000166762 -0.000435296 0.00104776 -0.00292724 -0.0114435 0.0581192 -0.091843 0.0896368 -0.0835283 -0.0852581 -0.0649308 0.0368394 -0.0143529 0.00847071 -0.0310858 -0.0532032 0.0717025 -0.080091 -0.0813904 -0.0811875 0.0750476 0.0600984 0.0409427 0.0206649 -0.000948435 -0.0225586 0.0428871 0.0609774 -0.0738126 0.0799862 0.0815043 0.0786457 -0.0693337 0.0541516 0.0358035 -0.0155061 0.0059585 0.0270176 -0.0464924 -0.0630218 0.0745013 0.0803139 -0.0813367 -0.0772297 -0.0671069 0.0519741 0.0337021 0.0133284 0.00803934 0.0288667 0.0479255 -0.0637916 -0.0748052 -0.0804862 0.0811931 -0.0765337 0.0661424 -0.0510593 0.0327967 -0.0123928 0.00891916 0.0296376 -0.0484891 -0.0640544 -0.0749002 0.0805553 0.0811152 0.0762172 -0.0657537 -0.0507353 -0.0324945 0.0120898 -0.00918801 0.0298575 0.0486138 0.0640527 0.0748659 -0.0805629 0.0810888 -0.076115 -0.0656737 0.0507394 0.0325411 -0.0121546 -0.00910054 0.0297548 0.0484813 0.0638895 0.0747439 0.08053 -0.0810974 0.0761428 0.0657783 -0.0509463 -0.0328096 0.0124546 -0.00878376 -0.0294431 -0.0481811 -0.0636164 -0.0745574 -0.080467 0.0811288 -0.0762541 0.0660026 0.051289 -0.0332301 -0.012917 -0.00830716 -0.0289847 0.0477615 -0.0632615 0.0743197 0.080379 0.0811742 -0.0764217 -0.0663092 -0.0517288 0.0337618 0.0134996 -0.00771096 0.0284152 -0.0472499 -0.0628405 0.0740381 0.0802685 -0.0812275 0.0766291 -0.066676 -0.0522423 0.0343805 0.0141773 0.0070188 0.0277553 0.0466618 -0.0623623 -0.0737163 -0.0801359 0.0812841 0.0768654 0.0670894 0.0528156 -0.0350715 -0.0149358 0.00624391 -0.0270164 -0.0460053 0.0618305 -0.0733551 -0.0799803 -0.0813405 0.0771242 -0.0675411 -0.0534406 -0.0358277 -0.0157683 -0.00539216 -0.0262029 -0.0452829 0.0612452 0.0729526 0.0797994 -0.081394 0.0774013 -0.0680269 0.0541143 -0.0366471 0.0166738 0.00446322 -0.0253134 -0.044492 -0.0606024 -0.0725044 0.0795895 0.0814418 0.0776946 -0.0685455 -0.0548374 -0.0375329 -0.0176577 -0.00345053 0.0243404 0.0436247 0.059894 0.0720023 0.0793444 -0.081481 0.0780038 0.0690986 0.055615 -0.0384946 0.0187322 0.00233995 0.0232688 0.042666 0.0591055 -0.071433 0.0790542 0.081508 0.0783305 -0.0696914 -0.0564576 0.0395492 -0.0199196 0.00110651 0.0220724 0.0415906 0.0582133 -0.0707745 -0.0787026 -0.0815172 0.0786781 0.0703333 0.0573829 -0.0407259 -0.0212575 0.000292068 -0.0207069 0.0403559 0.0571777 -0.0699898 -0.0782619 0.081499 0.0790535 0.0710404 0.0584207 0.0420745 -0.022811 0.00192887 -0.0190952 -0.0388874 -0.0559298 -0.0690128 0.0776798 0.0814344 -0.079468 -0.0718395 -0.0596203 0.043682 0.0246978 -0.00393762 0.0170948 0.0370459 -0.0543397 -0.0677153 -0.0768479 -0.0812793 0.0799411 0.072777 0.0610658 -0.0457111 -0.0271504 -0.00658713 0.0144136 0.0345414 -0.0521359 -0.0658174 -0.0755039 0.0809075 0.0805056 0.0739396 -0.0628996 -0.0484894 -0.0306916 0.0105028 0.0103531 -0.030655 -0.0486468 -0.0625972 0.0728503 0.0798243 -0.0811953 0.0755326 0.0653065 0.0526832 -0.0367403 -0.017539 -0.00276362 -0.022975 0.0416328 0.0557106 -0.0654843 0.0745641 -0.0811654 -0.078714 -0.0681313 -0.0575235 0.0487987 0.036313 -0.019083 -0.00238608 0.0119237 -0.0276417 0.0408423 0.0398352 0.0231143 0.102073 -0.102063 0.0849697 0.08497 
-0.000183681 -0.00047703 0.00113807 -0.00313749 -0.01204 0.0599644 -0.0940261 0.0907576 -0.0821099 -0.081277 -0.059002 0.0288497 -0.00384319 0.019857 -0.0415116 -0.0623341 0.0788243 -0.0838081 -0.0807817 -0.0758108 0.064991 0.046173 0.0237829 0.000775372 -0.0219015 -0.0423325 0.0600294 0.0743611 -0.0819466 0.081653 0.0761148 0.0661036 -0.0503491 0.0300191 0.00775106 0.0148558 0.0360836 0.0543059 -0.0690234 -0.0790529 0.0823434 0.0788874 -0.0702747 -0.0568742 -0.0387515 0.017492 -0.00492177 -0.0269076 0.0466467 0.0627754 0.0747073 -0.0812998 -0.0812762 -0.0749864 0.063642 -0.0477677 0.0280637 -0.00618927 -0.0161007 0.0371772 0.0552792 0.0692311 -0.0784422 -0.0819451 -0.0789678 0.0700624 0.0563369 0.0385339 -0.0177103 0.00445921 0.0263146 -0.046213 -0.0624997 0.0741619 0.0806686 0.0812608 0.0755418 -0.0642265 0.0484353 -0.0291128 -0.00754097 -0.0146073 -0.0357279 0.0541992 -0.0684954 0.0777628 0.0815719 0.0793792 0.0710937 0.0575801 -0.0400201 0.019533 -0.00244935 0.024269 0.0443725 -0.0611887 -0.0733357 -0.0801235 -0.0812515 -0.0763905 -0.0657127 -0.050224 0.0311868 -0.00986612 -0.0122061 -0.0334016 0.0522258 0.0671821 -0.0770447 -0.0812945 0.0797776 -0.0723742 0.0594899 0.0422634 0.0220406 -0.000205379 0.0216482 0.0419386 -0.0592433 -0.0721607 -0.0796312 0.0813138 -0.0772127 -0.0674103 0.0525223 0.0338089 -0.0126942 -0.00934472 0.0306831 0.0498045 -0.065374 -0.0761014 0.0811021 0.0802196 0.0736219 -0.0615848 -0.0449137 -0.0249768 0.00326526 -0.0186746 -0.0392148 -0.0569235 0.0705689 0.0789853 0.0814703 -0.0780564 -0.0690777 0.0549921 -0.0367752 -0.015888 0.00612605 -0.0276737 0.0471491 0.0632242 0.0747857 0.0808024 -0.0807587 -0.0748792 -0.0636621 0.0477353 0.0282251 0.00666749 0.0153586 -0.0362336 0.0543964 -0.0686436 0.0779932 -0.0815549 0.0790029 -0.070755 -0.0574685 -0.0399272 -0.0193882 -0.00255698 -0.0243123 -0.0442502 0.0608753 0.0731292 0.0801734 0.0812602 -0.0762538 0.0657651 0.0506027 0.0316904 0.010396 -0.0116553 0.0328695 -0.0516261 -0.0665144 -0.0766422 0.0813244 -0.0799531 0.0725798 0.0600068 0.0431843 0.0231583 -0.00138691 -0.0204956 -0.0409162 -0.0582726 0.0712545 0.0791596 -0.0814642 0.0776901 0.0680703 0.0535971 0.0353496 0.0144775 0.00749196 0.0289425 0.0483429 -0.0641117 -0.0750515 -0.0806777 0.0806348 0.074555 -0.0628424 -0.0466786 0.0272576 0.00581296 0.0160794 0.0368542 -0.0550436 -0.0690783 -0.0778791 -0.0812166 -0.0789116 0.0706714 -0.0570534 -0.0394326 -0.0191028 0.00263904 0.0241875 -0.044071 -0.0609121 0.0731228 0.0797339 0.080828 -0.0764194 -0.0662276 0.0509302 0.0321098 0.0111464 0.0106208 0.0315699 0.0503857 0.0658278 -0.0762156 -0.0806434 -0.0796088 0.0733695 0.0615395 0.0448427 0.0251087 0.00379756 0.0177315 0.0378311 0.0554488 -0.0696019 -0.0783524 -0.0806859 0.0777177 0.070143 0.0572287 -0.0395282 0.0192194 0.00212449 0.0231654 0.0421265 -0.0583919 -0.0716979 0.0795422 -0.0800648 -0.0753379 -0.0674256 0.054831 0.0369985 -0.0166302 0.00422856 -0.0245569 -0.0418992 0.0557465 -0.0686858 0.0789402 0.0799324 0.0722342 0.0640697 -0.0576507 -0.0463738 0.028494 0.0103294 -0.00468984 0.0200735 -0.0331723 -0.0338566 -0.0202157 -0.100071 0.100062 -0.0873116 -0.0873119 
-0.000202263 -0.000522602 0.00123567 -0.00336073 -0.012654 0.0617556 -0.0960485 0.0916284 -0.0802789 -0.0767464 -0.0525639 0.0205303 0.00672102 0.0309109 -0.051112 -0.0699998 0.0838216 -0.0849688 -0.0773752 -0.0674768 0.052122 0.0300416 0.00536756 -0.0191591 -0.0414735 -0.0592078 0.0727102 0.0817754 -0.0830134 0.0757643 0.0631745 0.0465572 -0.0256868 0.0022871 -0.0212888 0.0432131 0.0610639 0.0734186 -0.0805917 -0.0818683 0.0757236 0.0629135 -0.0456169 -0.0249961 -0.00218656 -0.0208631 -0.0424075 -0.0606549 0.0735371 0.0802669 0.0811608 -0.0758197 -0.0638881 -0.0466423 0.0259822 -0.00336457 -0.0195255 0.0408515 -0.0591575 0.0728109 0.0802396 0.0811562 -0.0760468 -0.0649934 -0.048436 0.0279455 0.00537446 -0.0175786 0.0390445 0.0573984 0.0714443 -0.0798394 -0.0815459 0.0767296 0.0661397 0.0503438 0.0303538 -0.00792346 -0.0150993 0.0368982 0.0556324 -0.0699601 -0.0789858 0.0817475 -0.077748 0.0675774 0.0522786 0.0328536 0.0107201 -0.0122799 0.0343397 -0.0536533 -0.0685565 0.0780523 0.0815952 -0.0786588 -0.0692715 -0.0544105 -0.0353981 -0.0135916 0.00932853 0.031529 -0.0513125 0.0670028 -0.0772224 -0.0813687 0.079283 0.0708976 -0.0567312 -0.038094 0.0165411 0.00631056 -0.0286512 -0.0487537 -0.06511 0.0762761 0.081243 0.0798341 -0.0722942 -0.0590082 -0.0409295 0.0196296 0.00317342 0.0257086 -0.0461621 -0.0630078 0.0750036 -0.0810216 0.0804758 0.0736253 -0.0611117 -0.0437405 0.0228255 0.000112758 -0.0226026 0.043504 0.0608897 0.0735205 -0.0804869 -0.081038 -0.0750379 -0.0631682 0.0464367 0.0260153 0.00348821 0.0193224 0.0406382 -0.0587029 0.0720304 0.0797403 0.0813051 -0.0763877 0.065303 0.0491176 0.0291534 0.00687595 0.015961 0.0375643 0.0562675 -0.0704717 -0.0789937 -0.081365 0.0774694 -0.0673944 0.0518813 -0.0323216 0.0102798 0.0125698 -0.0344109 0.0535856 0.0686295 0.0781841 0.0814357 -0.0783597 -0.0692562 -0.0546254 0.0355855 0.0137732 -0.00909018 -0.0312129 0.0508239 -0.0665021 -0.0770642 -0.081457 -0.0792795 -0.070958 0.0571917 -0.0388582 -0.0173839 0.00544683 -0.0278501 0.0480084 -0.0642969 -0.0756244 -0.0811525 -0.0801744 0.0727205 -0.05965 -0.0420212 -0.0210358 -0.00165611 -0.0242332 0.0449474 -0.0620383 -0.0741168 -0.0805014 -0.0807427 -0.0744976 0.062219 0.0451567 0.0246671 -0.00221181 0.0204304 0.0415222 -0.0594486 -0.0725714 0.0798085 0.080953 -0.0759679 -0.0648632 0.0484809 0.0283934 -0.00617782 0.0165116 0.037864 0.0563576 0.0706023 -0.0791193 0.0811772 0.0770955 0.067253 0.0519747 0.0324329 -0.0104304 0.0123273 -0.0340486 -0.0529772 -0.0679531 0.077902 0.0814938 -0.0783527 -0.0693685 -0.0553254 0.0367978 0.0152066 -0.00753593 -0.0297074 0.0493962 0.0649499 0.0757516 -0.081155 -0.079889 -0.0718635 -0.0585919 -0.0412602 0.0205971 -0.00182514 -0.0241523 0.0448109 0.0616971 0.0731864 -0.079472 -0.080581 -0.0750648 0.0628487 -0.0461655 0.0266806 0.00514738 -0.016797 0.0375991 0.0562668 -0.0702782 0.0774191 0.0790694 0.0769202 -0.0689481 -0.0539675 0.0349907 0.0147596 0.00618885 0.0260613 -0.043552 0.0600686 -0.0738599 -0.078525 -0.074206 -0.068942 0.0651679 0.0554719 -0.0373771 -0.0181059 -0.00260919 -0.0122624 0.0251382 0.0275309 0.0171217 0.0975498 -0.0975409 0.0895372 0.0895375 
-0.000222676 -0.00057238 0.00134116 -0.00359788 -0.0132862 0.0634913 -0.0979068 0.0922468 -0.0780446 -0.071697 -0.0456719 0.0119764 0.0171899 0.0414473 -0.0596959 -0.0760204 0.08656 -0.0835377 -0.0712888 -0.0565105 0.0369976 0.0124747 -0.0133311 -0.0379834 -0.0584303 -0.0720289 0.0799868 0.0826251 -0.0769211 0.0628649 0.043967 0.0220778 0.00187209 -0.0257192 -0.0476167 0.065739 0.0773377 0.081478 -0.07936 -0.0709974 0.0558046 0.0353379 -0.0121338 0.0119462 0.0348416 -0.0545988 -0.0700866 -0.0797753 0.0819564 0.0767668 0.0655301 -0.0489008 -0.0277455 -0.00408874 -0.0198871 0.0421399 -0.0604977 0.0735649 -0.0807547 0.0811505 0.0741378 0.060647 -0.0422908 -0.020407 0.00331786 -0.0267852 -0.048086 -0.065284 0.0765938 0.0813069 0.0794344 -0.0708339 -0.0558845 0.0361156 0.013417 -0.0103883 -0.0332631 0.0533102 -0.069007 0.0788171 0.081619 -0.0774485 -0.0669501 0.0507663 -0.0300851 0.00682093 -0.0169959 -0.039339 -0.0582068 -0.0721356 0.0801411 -0.0813071 -0.0753093 0.0629076 0.0453378 -0.0239176 -0.000393897 0.0231799 0.0448394 0.0626535 0.0749725 0.0809457 -0.0802444 0.0726935 -0.0587765 -0.0398744 0.0176862 -0.00599486 0.0291542 0.0498619 -0.0664451 0.0773399 -0.0814845 -0.0787454 -0.0694958 0.0543149 0.0343967 0.0115625 0.0122225 0.0349467 0.0546305 -0.0697155 0.0790242 0.0815715 -0.0770227 -0.0659768 0.049468 -0.0287402 0.00551115 -0.0181944 0.0403857 0.0591094 -0.0727026 -0.0801804 -0.0810083 0.0749065 0.0623028 0.0444495 -0.0229146 0.000567868 0.0240052 0.0454351 -0.0630902 -0.075336 -0.0810536 0.079961 0.0722351 -0.0583308 0.0393698 0.0170926 -0.00659629 0.0297068 -0.050249 -0.0665827 -0.0773875 -0.0815591 0.0786698 0.0691796 0.0539534 -0.0341142 -0.0113179 0.012438 -0.0351547 0.0548462 -0.0697955 0.0789049 -0.0814685 0.0770477 -0.0659588 0.0493434 0.0286433 0.00549945 -0.0181258 0.0402462 0.0590243 0.0727283 -0.0801425 -0.0808633 -0.0748871 -0.0624884 0.0446791 -0.023131 0.00032333 0.0237352 0.045099 0.0627121 -0.075132 0.0810904 0.0800303 0.0723026 -0.0586042 0.0398782 -0.0176934 0.00597506 0.0291399 0.0497827 -0.0661184 0.0769691 0.0814694 0.0789554 -0.0695962 -0.0544577 0.0348436 -0.0122437 0.0114253 0.0341617 0.0540785 0.0693177 -0.0785436 -0.0812816 -0.0773508 0.0667497 0.050344 0.0297744 -0.00678043 0.0167775 -0.0388836 -0.0578041 0.0719944 0.0799448 -0.0809308 -0.0752742 0.0634973 0.0462356 0.024931 0.00156995 -0.0219007 0.0434434 -0.0611922 -0.073965 -0.0807604 -0.0805321 -0.0732373 0.0599871 0.0419367 -0.0202654 0.00319757 0.0264244 -0.0475237 -0.0644425 0.075668 0.0808199 0.0795843 -0.0713981 -0.0568623 -0.0377648 -0.0157407 -0.00760945 -0.0302814 -0.0505796 0.0669587 0.0774163 0.0808798 0.0779828 0.0692016 -0.0543674 -0.0345677 -0.0120407 -0.0113379 -0.0336223 -0.0527652 0.0678677 0.0781347 0.081488 -0.0770987 0.0668028 -0.0520371 -0.032831 -0.0104698 -0.0127276 -0.035103 0.0542899 -0.0678328 -0.076189 -0.0804282 0.0780686 0.0673037 -0.0511772 -0.0329043 0.0125049 -0.00896272 0.0294383 -0.0490561 0.0661083 0.0745379 0.0739884 0.0720131 -0.071176 -0.0634184 0.0455677 0.0255898 0.00987198 0.0043027 -0.0168281 -0.0209229 -0.0138623 -0.0945214 0.0945131 -0.0916436 -0.0916439 
-0.000245107 -0.000626765 0.00145522 -0.00384993 -0.0139376 0.0651698 -0.0995979 0.0926112 -0.0754183 -0.0661629 -0.0383856 0.00328558 0.027415 0.05129 -0.0670927 -0.0802541 0.0869654 -0.0795586 -0.0627333 -0.0433398 0.0202723 -0.00568814 -0.0313261 -0.0546067 -0.0717026 -0.079918 0.0813185 0.0768419 -0.064195 0.0441486 0.0203979 -0.00474095 0.0292199 -0.0506415 -0.0678788 0.079394 0.0825845 0.077271 -0.0655238 -0.0482575 0.0260846 0.00124575 0.0236968 0.0464682 0.0644885 -0.0762452 -0.0815583 -0.0796579 0.0697896 0.0531904 0.0320684 -0.00815465 0.016542 0.0397104 -0.0594727 0.0738496 -0.0809677 0.0804779 -0.073058 0.0590698 0.0393359 0.0159001 0.00890546 0.0328563 0.053618 -0.0694258 -0.079197 -0.0817667 0.0764675 0.0640923 0.0461315 -0.0240051 0.000415531 -0.0248235 -0.0470537 -0.0649681 -0.0766848 0.0813702 -0.0789176 0.0692735 0.0530485 -0.0319491 -0.00804642 -0.0165625 0.0396017 -0.05904 -0.0732724 -0.0807978 -0.0806923 -0.0732228 0.0592937 -0.0399602 -0.0168615 -0.0077908 -0.0317482 0.0527807 0.0688523 0.0786695 0.081522 0.0769156 0.0650921 0.047344 -0.0254055 0.0011606 0.0231951 0.04546 -0.0636872 -0.0760714 0.0813422 0.0792367 -0.0700974 0.0545479 -0.0339019 -0.0101707 0.0144581 -0.0377456 -0.0575148 -0.0720854 0.0802439 0.0810476 0.074299 -0.0608215 0.0419371 0.0192237 0.00528267 0.0293241 -0.0507497 0.0675121 -0.0779972 -0.0814368 0.0776252 0.0667028 -0.0495789 -0.0279672 -0.0038705 -0.0205664 -0.0430971 -0.0617476 0.0748927 0.0811649 0.0799036 0.0714314 -0.0565974 -0.0365829 -0.0131706 -0.0114407 -0.0350258 0.0553853 -0.0706123 -0.0794821 -0.081267 0.075597 -0.0629177 -0.044565 -0.0222468 0.00209963 -0.0262565 -0.0480609 -0.0655769 0.0770655 0.0814161 0.0784445 -0.0684861 0.0522473 -0.031165 0.00727121 0.0172625 -0.0401972 0.0594139 -0.0733022 -0.08066 -0.0806057 -0.073086 0.0590022 0.0396726 0.0167097 0.00780635 0.0316339 0.0526392 0.0687941 -0.0785811 0.0813312 0.0768506 0.0653069 0.0477106 0.0258344 -0.00167202 -0.0226287 -0.0448394 -0.0630513 0.0756596 -0.0812967 0.0794007 0.0704112 0.0551825 0.0348831 -0.0113437 -0.0132202 -0.036602 -0.0565945 0.0713432 0.0797442 -0.081088 0.0749547 0.0618623 0.04326 0.0208471 -0.00347118 0.0274748 0.0490531 0.0662955 -0.0774009 -0.081314 -0.0780235 0.0678721 0.0514566 -0.0302464 -0.00634763 -0.0180927 -0.0408343 0.059778 0.0734624 -0.0807113 -0.0804754 -0.0727269 -0.0585763 -0.0393306 0.0164604 0.0079576 0.0316975 0.0526673 0.0687165 0.0783274 -0.081106 -0.0768804 0.0655088 0.0479717 0.0262466 -0.00229134 0.0218356 -0.0439077 -0.0622037 -0.0751886 0.0811275 0.0793698 0.0707829 0.0562465 -0.0364831 -0.0132338 0.0111757 -0.0346258 -0.054766 -0.0696328 -0.0786174 -0.081174 0.0761056 0.0636327 0.0457926 -0.0243319 -0.000675667 0.0230278 -0.0448552 -0.063195 -0.0755217 0.0802215 -0.0783111 0.0706676 0.056502 0.036529 -0.0135247 0.010363 -0.0331071 0.0521652 0.0669374 0.0776766 -0.0815316 -0.0761096 0.064184 0.0491688 -0.0305406 -0.00856933 -0.0140273 0.0360874 -0.0559658 -0.0681022 -0.0715879 -0.0732027 0.0755361 0.0700483 -0.052914 -0.0326605 -0.0169977 0.00370905 0.00833321 0.0141004 0.010469 0.0910018 -0.0909941 0.0936279 0.0936283 
-0.000269757 -0.000686193 0.00157858 -0.00411791 -0.0146093 0.0667896 -0.101119 0.0927205 -0.0724132 -0.0601817 -0.0307678 -0.00544275 0.0372512 0.0602741 -0.0731553 -0.0826017 0.0850271 -0.0731528 -0.0520051 -0.0284784 0.00266969 -0.0235792 -0.0476673 -0.0680659 -0.0804534 -0.0823348 0.0766063 0.0648902 -0.0459327 0.0213472 -0.00519477 -0.0310574 0.0532727 -0.0694916 -0.0794942 0.0823354 0.0760564 0.0614308 -0.0412807 -0.0174501 -0.00821659 -0.0330761 0.0549429 0.0715759 0.0804735 -0.0810095 -0.0741698 -0.060331 0.0400929 0.0157036 -0.0101194 0.0348973 0.0559735 0.0714119 -0.0802671 0.0813841 -0.0739982 0.059166 -0.0388592 0.0148462 -0.0106936 -0.0352013 0.0564292 0.0721494 0.0804257 -0.0807298 -0.073499 -0.0591437 0.0387277 0.0144615 -0.0111524 0.0356417 0.0564878 -0.0717924 -0.0803522 -0.0810719 -0.0735485 0.0587954 -0.0385123 0.0144989 -0.0109816 0.0354089 0.0564902 -0.0720329 0.080298 -0.0807187 -0.0735122 -0.0591331 -0.0387959 -0.0146559 -0.0108649 0.0352987 0.0561846 -0.0716092 -0.0802436 0.0810246 0.0736772 0.0591521 0.039018 0.0150853 -0.0103597 -0.0348139 0.0559553 -0.0716052 0.0800974 0.0808131 -0.0738458 -0.0596575 0.039512 0.0155188 0.00994485 -0.0344165 0.0554592 0.0711347 0.0800336 -0.0810913 -0.0740728 -0.0598708 0.0399688 0.0161667 -0.00924706 0.0337788 -0.0550847 -0.0709824 0.0798264 0.0809479 -0.0743503 0.0604748 -0.0405906 -0.0167695 -0.00864506 -0.0331972 0.0544584 0.0704646 0.0797435 -0.0812042 -0.0746106 -0.0608039 0.0411983 0.0175672 -0.00780942 -0.032444 0.0539752 0.0702044 0.0794803 -0.0810887 -0.0749565 0.0614808 -0.0419132 -0.0182932 0.00706631 -0.0317188 0.0532357 0.0696298 0.079373 0.081328 -0.0752337 -0.0618873 -0.0426384 0.0192186 -0.00610778 -0.0308576 0.0526554 -0.0692756 0.0790457 -0.0812133 0.0756325 -0.062634 0.0434367 -0.0200534 0.00523481 0.0299947 0.0517934 -0.0686249 -0.0789086 -0.0814396 0.0759159 0.0630999 0.0442759 0.0211151 0.00414009 -0.0290101 -0.0511082 -0.0681718 -0.078496 -0.0813009 0.0763676 -0.0639321 -0.0451678 -0.0220688 -0.00311915 0.027984 -0.0500861 -0.0674085 -0.0783194 -0.0815187 0.0766486 -0.0644529 -0.0461461 -0.0233107 -0.00184009 -0.026829 0.0492629 -0.0668285 -0.0777771 -0.0813217 -0.0771681 -0.0654133 0.0471685 0.0244263 -0.000611058 0.0255667 0.0479932 0.0658769 -0.0775387 -0.0815366 0.0774364 0.0659967 -0.0483563 -0.0259564 0.000967521 -0.0241301 0.0469472 0.0650966 0.0767686 0.0812122 0.0780604 -0.0671843 0.0496009 0.027342 0.00255521 -0.0224514 -0.0452211 0.0637754 0.0764049 -0.0814312 -0.0782933 -0.0678502 0.0511692 0.0294305 -0.00472433 0.0204457 0.0437209 -0.0625967 -0.0751498 -0.0807795 -0.0790917 0.0695209 0.0528828 0.0313728 -0.00708583 0.0178415 0.0409401 0.0603431 0.0744148 -0.0810009 -0.0792086 -0.0702608 0.0552873 0.0348486 0.0107754 0.014303 0.0381509 0.0580731 -0.0717664 0.0791177 -0.0801641 -0.0732673 -0.0583751 0.0383098 0.0154329 0.00875642 -0.031821 -0.0520885 -0.0688794 0.079086 0.0797922 -0.073203 -0.0626237 0.0469692 0.0256869 -0.0020019 -0.0216798 0.0437991 0.0594292 0.0670752 0.0724798 -0.0781471 -0.075224 0.0592799 0.0392035 0.0238873 -0.0116759 0.000253122 -0.0071333 -0.0069746 -0.0870092 0.0870023 -0.0954876 -0.095488 
-0.00029685 -0.000751144 0.00171203 -0.00440295 -0.015302 0.0683494 -0.102467 0.0925745 -0.0690442 -0.0537935 -0.0228844 -0.0141089 0.0465591 0.0682493 -0.077763 -0.0830077 0.0807972 -0.0645156 -0.0394757 -0.0125061 -0.0150484 -0.0403437 -0.0614922 -0.0775809 -0.0841311 -0.0791138 0.0662004 0.0477294 -0.0237091 -0.0034296 -0.0302721 -0.054083 0.0713181 -0.0800092 -0.080983 0.0741663 0.0586841 0.0363422 -0.0104812 0.0162744 -0.0410747 -0.0612985 0.0755594 0.0821823 0.0794101 -0.0678366 -0.0496296 -0.0264554 0.000325562 -0.0258901 -0.0495536 0.0680816 0.0789737 0.081358 -0.0756998 0.062277 -0.0419513 0.0171035 0.00943584 -0.0349428 -0.0565835 -0.0722344 0.0806823 0.0807651 0.0719951 -0.0555949 -0.0336402 -0.00823467 -0.0180617 -0.0424836 -0.0626389 0.0762569 0.0815906 -0.0783582 -0.0672496 -0.0491624 -0.0257585 -0.000366359 0.0264474 -0.0497426 -0.0676712 0.0785412 0.0814811 -0.0759293 0.062212 -0.041992 -0.017532 0.00872954 0.0340545 0.0558511 -0.0719878 0.0806015 0.0805876 -0.0721895 -0.0564761 0.0348854 0.00956655 -0.0167636 -0.0413862 -0.0616689 -0.0753755 -0.0812665 0.0789019 -0.0683035 0.0504303 0.0273158 -0.00143032 0.0245847 -0.0479876 -0.0664316 0.0781132 -0.08163 0.0764761 0.0634002 0.0438742 -0.0197798 0.00641629 0.0319628 -0.0542478 -0.070852 -0.0799473 0.0807799 -0.0733819 -0.0583232 0.0370849 0.0120028 0.0142963 -0.0390854 0.0597415 0.074237 -0.0811602 -0.079599 0.0696188 0.0524464 0.0299302 -0.00429962 0.0217896 0.0456431 -0.064835 -0.0772398 -0.0814865 -0.077332 0.0652901 0.0464307 0.022665 0.00344788 0.0292019 -0.0518887 0.0691026 0.0792057 0.0812261 -0.0747528 0.0603906 0.039804 0.0151631 -0.0110498 0.0361022 0.0574511 0.072934 -0.0807801 -0.0801088 -0.0711987 0.0550308 -0.0331151 0.00770313 0.0185121 -0.0428317 0.0626562 -0.0758794 0.0813151 0.0784613 0.0673978 0.049227 -0.0259951 -0.000122742 0.0257475 -0.0489098 -0.0670664 -0.078387 -0.0814929 0.076009 -0.062733 -0.043077 -0.0189209 0.00723595 0.0326644 -0.0547607 0.0711054 0.0799572 0.0806338 -0.073115 0.0579371 -0.0366452 -0.0115977 0.0146168 0.0392808 -0.0598081 0.0742408 0.081136 0.079514 -0.0695007 -0.0523963 0.0299914 -0.00445506 0.0215592 0.045393 0.0646219 0.0770482 -0.0813394 -0.0773646 -0.0655769 0.0469074 0.0232733 -0.00273691 0.028456 0.0511588 -0.0684562 -0.0788316 0.0812702 0.0751521 -0.0610722 -0.0408112 0.0164692 -0.00958136 -0.0346245 -0.0561958 -0.0721309 0.0804405 -0.080208 -0.0719141 -0.0564615 -0.0350693 -0.00993737 -0.0162112 -0.0407293 0.0609059 0.0745899 0.0808435 -0.0791195 -0.0690256 0.051541 0.0289188 0.00348862 0.0222608 0.0456234 0.0645032 0.0771034 -0.0814934 -0.0770821 -0.0650937 0.0468782 0.0237332 -0.00199048 -0.0275553 -0.0504836 0.0679699 0.0779935 0.0804847 -0.0755309 -0.0625713 -0.042676 0.0186535 -0.00700668 -0.0317949 0.0529537 -0.0691124 0.079299 0.0810777 0.0734884 -0.058939 -0.0396565 0.016432 0.0086241 0.0328838 0.0547215 -0.0709091 -0.0781037 0.0776737 0.0725001 -0.0609263 -0.041562 0.0179428 0.0064076 -0.0300483 -0.0488039 -0.0605836 -0.0698632 0.0789486 0.078838 -0.0645474 -0.0451132 -0.0304452 0.0195014 -0.00883667 9.30953e-05 0.00341278 0.0825644 -0.0825584 0.0972202 0.0972205 
